{"learner":{"attributes":{"best_iteration":"430","best_score":"0.2306453025854947"},"feature_names":["hr","rr","spo2","sbp","dbp","mbp","temp","creatinine","wbc","platelets","potassium","sodium","lactate","gcs_eye","gcs_verbal","gcs_motor","gcs_total","urine_ml_6h","urine_ml_kg_hr_avg","oliguria_flag","shock_index","anchor_age","news_score","mews_score","lactate_missing","abga_checked","is_readmission","hr_delta","sbp_delta","spo2_delta","lactate_delta","gcs_total_delta"],"feature_types":["float","float","float","float","float","float","float","float","float","float","float","float","float","float","float","float","float","float","float","float","float","int","int","int","int","int","int","float","float","float","float","float"],"gradient_booster":{"model":{"cats":{"enc":[],"feature_segments":[],"sorted_idx":[]},"gbtree_model_param":{"num_parallel_tree":"1","num_trees":"631"},"iteration_indptr":[0,1,2,3,4,5,6,7,8,9,10,11,12,13,14,15,16,17,18,19,20,21,22,23,24,25,26,27,28,29,30,31,32,33,34,35,36,37,38,39,40,41,42,43,44,45,46,47,48,49,50,51,52,53,54,55,56,57,58,59,60,61,62,63,64,65,66,67,68,69,70,71,72,73,74,75,76,77,78,79,80,81,82,83,84,85,86,87,88,89,90,91,92,93,94,95,96,97,98,99,100,101,102,103,104,105,106,107,108,109,110,111,112,113,114,115,116,117,118,119,120,121,122,123,124,125,126,127,128,129,130,131,132,133,134,135,136,137,138,139,140,141,142,143,144,145,146,147,148,149,150,151,152,153,154,155,156,157,158,159,160,161,162,163,164,165,166,167,168,169,170,171,172,173,174,175,176,177,178,179,180,181,182,183,184,185,186,187,188,189,190,191,192,193,194,195,196,197,198,199,200,201,202,203,204,205,206,207,208,209,210,211,212,213,214,215,216,217,218,219,220,221,222,223,224,225,226,227,228,229,230,231,232,233,234,235,236,237,238,239,240,241,242,243,244,245,246,247,248,249,250,251,252,253,254,255,256,257,258,259,260,261,262,263,264,265,266,267,268,269,270,271,272,273,274,275,276,277,278,279,280,281,282,283,284,285,286,287,288,289,290,291,292,293,294,295,296,297,298,299,300,301,302,303,304,305,306,307,308,309,310,311,312,313,314,315,316,317,318,319,320,321,322,323,324,325,326,327,328,329,330,331,332,333,334,335,336,337,338,339,340,341,342,343,344,345,346,347,348,349,350,351,352,353,354,355,356,357,358,359,360,361,362,363,364,365,366,367,368,369,370,371,372,373,374,375,376,377,378,379,380,381,382,383,384,385,386,387,388,389,390,391,392,393,394,395,396,397,398,399,400,401,402,403,404,405,406,407,408,409,410,411,412,413,414,415,416,417,418,419,420,421,422,423,424,425,426,427,428,429,430,431,432,433,434,435,436,437,438,439,440,441,442,443,444,445,446,447,448,449,450,451,452,453,454,455,456,457,458,459,460,461,462,463,464,465,466,467,468,469,470,471,472,473,474,475,476,477,478,479,480,481,482,483,484,485,486,487,488,489,490,491,492,493,494,495,496,497,498,499,500,501,502,503,504,505,506,507,508,509,510,511,512,513,514,515,516,517,518,519,520,521,522,523,524,525,526,527,528,529,530,531,532,533,534,535,536,537,538,539,540,541,542,543,544,545,546,547,548,549,550,551,552,553,554,555,556,557,558,559,560,561,562,563,564,565,566,567,568,569,570,571,572,573,574,575,576,577,578,579,580,581,582,583,584,585,586,587,588,589,590,591,592,593,594,595,596,597,598,599,600,601,602,603,604,605,606,607,608,609,610,611,612,613,614,615,616,617,618,619,620,621,622,623,624,625,626,627,628,629,630,631],"tree_info":[0,0,0,0,0,0,0,0,0,0,0,0,0,0,0,0,0,0,0,0,0,0,0,0,0,0,0,0,0,0,0,0,0,0,0,0,0,0,0,0,0,0,0,0,0,0,0,0,0,0,0,0,0,0,0,0,0,0,0,0,0,0,0,0,0,0,0,0,0,0,0,0,0,0,0,0,0,0,0,0,0,0,0,0,0,0,0,0,0,0,0,0,0,0,0,0,0,0,0,0,0,0,0,0,0,0,0,0,0,0,0,0,0,0,0,0,0,0,0,0,0,0,0,0,0,0,0,0,0,0,0,0,0,0,0,0,0,0,0,0,0,0,0,0,0,0,0,0,0,0,0,0,0,0,0,0,0,0,0,0,0,0,0,0,0,0,0,0,0,0,0,0,0,0,0,0,0,0,0,0,0,0,0,0,0,0,0,0,0,0,0,0,0,0,0,0,0,0,0,0,0,0,0,0,0,0,0,0,0,0,0,0,0,0,0,0,0,0,0,0,0,0,0,0,0,0,0,0,0,0,0,0,0,0,0,0,0,0,0,0,0,0,0,0,0,0,0,0,0,0,0,0,0,0,0,0,0,0,0,0,0,0,0,0,0,0,0,0,0,0,0,0,0,0,0,0,0,0,0,0,0,0,0,0,0,0,0,0,0,0,0,0,0,0,0,0,0,0,0,0,0,0,0,0,0,0,0,0,0,0,0,0,0,0,0,0,0,0,0,0,0,0,0,0,0,0,0,0,0,0,0,0,0,0,0,0,0,0,0,0,0,0,0,0,0,0,0,0,0,0,0,0,0,0,0,0,0,0,0,0,0,0,0,0,0,0,0,0,0,0,0,0,0,0,0,0,0,0,0,0,0,0,0,0,0,0,0,0,0,0,0,0,0,0,0,0,0,0,0,0,0,0,0,0,0,0,0,0,0,0,0,0,0,0,0,0,0,0,0,0,0,0,0,0,0,0,0,0,0,0,0,0,0,0,0,0,0,0,0,0,0,0,0,0,0,0,0,0,0,0,0,0,0,0,0,0,0,0,0,0,0,0,0,0,0,0,0,0,0,0,0,0,0,0,0,0,0,0,0,0,0,0,0,0,0,0,0,0,0,0,0,0,0,0,0,0,0,0,0,0,0,0,0,0,0,0,0,0,0,0,0,0,0,0,0,0,0,0,0,0,0,0,0,0,0,0,0,0,0,0,0,0,0,0,0,0,0,0,0,0,0,0,0,0,0,0,0,0,0,0,0,0,0,0,0,0,0,0,0,0,0,0,0,0,0,0,0,0,0,0,0,0,0,0,0,0,0,0,0,0,0,0,0,0,0,0,0,0,0,0,0,0,0,0,0,0,0,0,0,0,0,0,0,0,0,0,0,0,0,0,0,0,0,0,0,0,0,0,0,0,0,0,0,0,0,0,0,0,0,0,0],"trees":[{"base_weights":[5.376076E-4,-5.081069E-1,6.8204284E-1,4.9194247E-1,-6.544845E-1,4.075133E-1,1.1940701E0,5.746044E-1,-1.4810807E-1,4.0216076E-1,-7.183352E-1,1.1668748E0,2.939818E-1,1.3120074E0,7.6822346E-1,6.7354107E-1,1.8103117E-1,6.829422E-1,-3.7053987E-1,1.2530014E-1,8.891453E-1,-9.125976E-1,-4.3274894E-1,1.4405926E0,1.0335757E0,7.9001355E-1,1.4705548E-1,1.034548E0,1.470116E0,1.0434985E0,5.6780505E-1,2.6116684E-2,5.2186538E-2,3.2185193E-2,-2.371937E-3,3.6222094E-3,5.6343473E-2,-3.2840133E-2,4.0831705E-4,3.8686775E-2,4.1813657E-4,2.8086508E-2,5.1190335E-2,-4.681734E-2,5.3774208E-2,1.0835661E-2,-2.5066728E-2,7.865669E-2,6.1635178E-2,7.779503E-2,4.9038794E-2,2.8221041E-2,4.9084052E-2,-2.7772672E-3,2.1613225E-2,4.1117594E-2,6.925177E-2,8.245093E-2,6.670922E-2,3.863414E-2,6.305963E-2,1.3270542E-2,3.678955E-2],"categories":[],"categories_nodes":[],"categories_segments":[],"categories_sizes":[],"default_left":[0,0,0,0,0,0,0,0,0,0,0,0,0,0,0,0,0,0,0,0,0,0,0,0,0,0,0,0,0,0,0,0,0,0,0,0,0,0,0,0,0,0,0,0,0,0,0,0,0,0,0,0,0,0,0,0,0,0,0,0,0,0,0],"id":0,"left_children":[1,3,5,7,9,11,13,15,17,19,21,23,25,27,29,31,33,35,37,39,41,43,45,47,49,51,53,55,57,59,61,-1,-1,-1,-1,-1,-1,-1,-1,-1,-1,-1,-1,-1,-1,-1,-1,-1,-1,-1,-1,-1,-1,-1,-1,-1,-1,-1,-1,-1,-1,-1,-1],"loss_changes":[3.435326E5,8.307139E4,5.9534984E4,3.8337676E3,3.339872E4,2.3769348E4,7.422297E3,2.4985E3,1.5327731E3,3.8032383E3,2.589764E4,1.3054258E3,1.7480771E4,5.0753438E3,1.7678965E3,2.869293E3,1.3629988E3,4.7435236E2,7.0903937E2,1.363907E3,4.4965332E2,1.3119781E4,8.41857E3,3.1958398E2,6.6222656E2,2.368871E3,1.069292E4,3.1234297E3,1.78875E3,7.943887E2,9.4243604E2,0E0,0E0,0E0,0E0,0E0,0E0,0E0,0E0,0E0,0E0,0E0,0E0,0E0,0E0,0E0,0E0,0E0,0E0,0E0,0E0,0E0,0E0,0E0,0E0,0E0,0E0,0E0,0E0,0E0,0E0,0E0,0E0],"parents":[2147483647,0,0,1,1,2,2,3,3,4,4,5,5,6,6,7,7,8,8,9,9,10,10,11,11,12,12,13,13,14,14,15,15,16,16,17,17,18,18,19,19,20,20,21,21,22,22,23,23,24,24,25,25,26,26,27,27,28,28,29,29,30,30],"right_children":[2,4,6,8,10,12,14,16,18,20,22,24,26,28,30,32,34,36,38,40,42,44,46,48,50,52,54,56,58,60,62,-1,-1,-1,-1,-1,-1,-1,-1,-1,-1,-1,-1,-1,-1,-1,-1,-1,-1,-1,-1,-1,-1,-1,-1,-1,-1,-1,-1,-1,-1,-1,-1],"split_conditions":[7E0,7E0,1E1,2E0,1E2,1E2,3.85E2,6E0,1.55E2,2E0,5E0,5.6E1,2E0,1.4E0,9.1E1,7.8E1,6.4E1,6E0,6E0,9E1,1.5E0,2E-1,8.3E1,5E1,8.8E1,1.4534883E0,3E0,1.2790698E0,5.7E1,4E0,4E0,2.6116684E-2,5.2186538E-2,3.2185193E-2,-2.371937E-3,3.6222094E-3,5.6343473E-2,-3.2840133E-2,4.0831705E-4,3.8686775E-2,4.1813657E-4,2.8086508E-2,5.1190335E-2,-4.681734E-2,5.3774208E-2,1.0835661E-2,-2.5066728E-2,7.865669E-2,6.1635178E-2,7.779503E-2,4.9038794E-2,2.8221041E-2,4.9084052E-2,-2.7772672E-3,2.1613225E-2,4.1117594E-2,6.925177E-2,8.245093E-2,6.670922E-2,3.863414E-2,6.305963E-2,1.3270542E-2,3.678955E-2],"split_indices":[22,16,22,13,17,17,17,16,17,23,22,5,13,7,2,5,5,22,22,3,7,30,3,17,2,18,23,20,5,23,23,0,0,0,0,0,0,0,0,0,0,0,0,0,0,0,0,0,0,0,0,0,0,0,0,0,0,0,0,0,0,0,0],"split_type":[0,0,0,0,0,0,0,0,0,0,0,0,0,0,0,0,0,0,0,0,0,0,0,0,0,0,0,0,0,0,0,0,0,0,0,0,0,0,0,0,0,0,0,0,0,0,0,0,0,0,0,0,0,0,0,0,0,0,0,0,0,0,0],"sum_hessian":[9.910204E5,5.674798E5,4.235406E5,7.245611E4,4.950237E5,2.7571584E5,1.4782475E5,6.4168957E4,8.287154E3,2.8207973E4,4.6681572E5,3.5858152E4,2.3985769E5,1.15760875E5,3.206388E4,5.1277387E4,1.2891569E4,1.7488723E3,6.538282E3,1.7985412E4,1.022256E4,2.7782697E5,1.8898873E5,1.173721E4,2.4120943E4,5.480936E4,1.8504833E5,4.202598E4,7.373489E4,1.3505559E4,1.8558322E4,3.6410145E4,1.4867242E4,4.2603438E3,8.631226E3,7.372782E2,1.0115941E3,3.722778E3,2.8155044E3,2.7461833E3,1.52392295E4,2.982141E3,7.2404185E3,2.7454834E5,3.2786362E3,1.8051182E4,1.7093755E5,7.1594937E3,4.577716E3,2.2092166E3,2.1911727E4,2.518017E4,2.9629188E4,1.0819362E5,7.685471E4,2.6181543E4,1.5844439E4,3.1825893E4,4.1909E4,6.0225225E3,7.483036E3,6.6295415E3,1.1928781E4],"tree_param":{"num_deleted":"0","num_feature":"32","num_nodes":"63","size_leaf_vector":"1"}},{"base_weights":[-1.3841053E-3,-4.8646107E-1,6.4767003E-1,4.533295E-1,-6.230392E-1,3.8856936E-1,1.1330703E0,5.315801E-1,-1.5050551E-1,-7.640283E-1,-1.9856717E-1,2.3462027E-1,8.990133E-1,9.20595E-1,1.4672017E0,6.283131E-1,1.4371984E-1,-4.8518032E-1,2.5496408E-1,-8.855602E-1,-5.1076025E-1,-3.8370633E-1,3.5972148E-1,6.3520557E-1,8.439171E-2,7.308732E-1,1.3426974E0,1.2015983E0,7.793315E-1,1.3307092E0,1.7310364E0,2.3627702E-2,4.8746567E-2,3.166502E-2,-2.9732776E-3,-1.317513E-2,-5.3144705E-2,9.724225E-4,3.4694936E-2,-3.2846462E-2,-4.977634E-2,-3.1375606E-2,-6.481798E-3,4.661049E-3,-2.3733268E-2,1.0322923E-2,6.475163E-2,5.1667463E-2,2.5158158E-2,-1.9527829E-3,2.405147E-2,2.073221E-2,4.604081E-2,5.6654602E-2,7.83013E-2,6.935378E-2,5.0223906E-2,2.8654888E-2,4.9334403E-2,7.55306E-2,5.6805372E-2,8.2580395E-2,8.922275E-2],"categories":[],"categories_nodes":[],"categories_segments":[],"categories_sizes":[],"default_left":[0,0,0,0,0,0,0,0,0,0,0,0,0,0,0,0,0,0,0,0,0,0,0,0,0,0,0,0,0,0,0,0,0,0,0,0,0,0,0,0,0,0,0,0,0,0,0,0,0,0,0,0,0,0,0,0,0,0,0,0,0,0,0],"id":1,"left_children":[1,3,5,7,9,11,13,15,17,19,21,23,25,27,29,31,33,35,37,39,41,43,45,47,49,51,53,55,57,59,61,-1,-1,-1,-1,-1,-1,-1,-1,-1,-1,-1,-1,-1,-1,-1,-1,-1,-1,-1,-1,-1,-1,-1,-1,-1,-1,-1,-1,-1,-1,-1,-1],"loss_changes":[3.1170034E5,7.272419E4,5.325428E4,3.397167E3,2.9604969E4,2.1694484E4,1.0459391E4,2.3877559E3,1.119692E3,1.14291875E4,1.2749495E4,1.2764536E4,4.7703086E3,3.5741719E3,2.058125E3,2.7493184E3,1.2641581E3,5.7828723E2,3.857177E2,6.3075625E3,5.3580215E3,4.0184502E3,4.402926E3,3.0402637E3,7.5532837E3,2.785955E3,8.192832E2,1.0989414E3,2.5627852E3,1.3184766E3,7.694531E1,0E0,0E0,0E0,0E0,0E0,0E0,0E0,0E0,0E0,0E0,0E0,0E0,0E0,0E0,0E0,0E0,0E0,0E0,0E0,0E0,0E0,0E0,0E0,0E0,0E0,0E0,0E0,0E0,0E0,0E0,0E0,0E0],"parents":[2147483647,0,0,1,1,2,2,3,3,4,4,5,5,6,6,7,7,8,8,9,9,10,10,11,11,12,12,13,13,14,14,15,15,16,16,17,17,18,18,19,19,20,20,21,21,22,22,23,23,24,24,25,25,26,26,27,27,28,28,29,29,30,30],"right_children":[2,4,6,8,10,12,14,16,18,20,22,24,26,28,30,32,34,36,38,40,42,44,46,48,50,52,54,56,58,60,62,-1,-1,-1,-1,-1,-1,-1,-1,-1,-1,-1,-1,-1,-1,-1,-1,-1,-1,-1,-1,-1,-1,-1,-1,-1,-1,-1,-1,-1,-1,-1,-1],"split_conditions":[7E0,7E0,1E1,2E0,2E0,2.9E0,3.2E0,6E0,6E0,5E0,1.9E0,3E0,7.1E0,5.7E1,9.6E0,1.16E2,6.3E1,4E0,1.9E0,1E0,1.8E0,8.3E1,3.9E0,1E0,1.9E0,1.3E0,4.625E0,6E0,1.055E2,6E1,1.2E1,2.3627702E-2,4.8746567E-2,3.166502E-2,-2.9732776E-3,-1.317513E-2,-5.3144705E-2,9.724225E-4,3.4694936E-2,-3.2846462E-2,-4.977634E-2,-3.1375606E-2,-6.481798E-3,4.661049E-3,-2.3733268E-2,1.0322923E-2,6.475163E-2,5.1667463E-2,2.5158158E-2,-1.9527829E-3,2.405147E-2,2.073221E-2,4.604081E-2,5.6654602E-2,7.83013E-2,6.935378E-2,5.0223906E-2,2.8654888E-2,4.9334403E-2,7.55306E-2,5.6805372E-2,8.2580395E-2,8.922275E-2],"split_indices":[22,16,22,13,23,12,12,16,22,22,7,13,12,5,12,3,5,13,7,24,7,3,12,25,7,7,10,15,0,5,22,0,0,0,0,0,0,0,0,0,0,0,0,0,0,0,0,0,0,0,0,0,0,0,0,0,0,0,0,0,0,0,0],"split_type":[0,0,0,0,0,0,0,0,0,0,0,0,0,0,0,0,0,0,0,0,0,0,0,0,0,0,0,0,0,0,0,0,0,0,0,0,0,0,0,0,0,0,0,0,0,0,0,0,0,0,0,0,0,0,0,0,0,0,0,0,0,0,0],"sum_hessian":[9.9001994E5,5.6658075E5,4.234392E5,7.189163E4,4.9468912E5,2.7607653E5,1.4736264E5,6.364425E4,8.247379E3,3.7134472E5,1.233444E5,2.1210802E5,6.3968516E4,9.0084875E4,5.7277773E4,5.0938785E4,1.2705464E4,4.5179043E3,3.729474E3,2.5092983E5,1.204149E5,9.262786E4,3.0716541E4,5.7848426E4,1.542596E5,4.639268E4,1.7575838E4,3.0131615E4,5.9953254E4,3.7756754E4,1.9521021E4,3.514878E4,1.5790005E4,3.7252185E3,8.980246E3,3.2671577E3,1.2507467E3,2.4285144E3,1.3009597E3,8.14992E4,1.6943062E5,9.217664E4,2.8238256E4,1.4836303E4,7.7791555E4,2.639398E4,4.3225596E3,1.44037E4,4.3444727E4,1.17645914E5,3.661367E4,1.7411416E4,2.8981262E4,9.072749E3,8.50309E3,1.5518048E4,1.4613567E4,3.006178E4,2.9891477E4,1.9612316E4,1.8144438E4,7.875167E3,1.1645854E4],"tree_param":{"num_deleted":"0","num_feature":"32","num_nodes":"63","size_leaf_vector":"1"}},{"base_weights":[-4.8012898E-4,-4.6198675E-1,6.167168E-1,-6.998841E-1,-1.66833E-1,3.7094724E-1,1.0780774E0,-7.5944257E-1,1.373334E-1,6.292609E-1,-2.6555362E-1,9.900399E-1,2.4761479E-1,8.69729E-1,1.3821394E0,-3.696359E-1,-8.383535E-1,4.5026404E-1,-5.859301E-1,4.62607E-1,1.0808471E0,-3.30457E-1,2.6609713E-1,1.1664264E0,7.7420795E-1,1.2782563E-1,7.254605E-1,1.2979305E0,7.461704E-1,1.2561803E0,1.6483146E0,-3.609592E-2,-7.263168E-3,-4.2865932E-2,5.031689E-2,7.3414156E-3,5.3109046E-2,5.250432E-2,-3.4806293E-2,3.334402E-2,8.471332E-3,4.6927553E-2,6.734142E-2,9.536831E-3,-1.912905E-2,-4.749628E-3,2.7713949E-2,7.247386E-2,5.169657E-2,2.7215878E-2,4.66145E-2,3.2164633E-2,1.3699267E-3,4.5993593E-2,1.2599558E-2,6.938021E-2,4.8532393E-2,6.0025405E-2,3.228804E-2,7.189899E-2,5.2852686E-2,8.313015E-2,6.0103375E-2],"categories":[],"categories_nodes":[],"categories_segments":[],"categories_sizes":[],"default_left":[0,0,0,0,0,0,0,0,0,0,0,0,0,0,0,0,0,0,0,0,0,0,0,0,0,0,0,0,0,0,0,0,0,0,0,0,0,0,0,0,0,0,0,0,0,0,0,0,0,0,0,0,0,0,0,0,0,0,0,0,0,0,0],"id":2,"left_children":[1,3,5,7,9,11,13,15,17,19,21,23,25,27,29,31,33,35,37,39,41,43,45,47,49,51,53,55,57,59,61,-1,-1,-1,-1,-1,-1,-1,-1,-1,-1,-1,-1,-1,-1,-1,-1,-1,-1,-1,-1,-1,-1,-1,-1,-1,-1,-1,-1,-1,-1,-1,-1],"loss_changes":[2.8167744E5,3.972897E4,4.7971953E4,1.56220625E4,1.9846176E4,2.1076328E4,9.313078E3,8.996266E3,4.7101924E3,2.095707E3,7.752377E3,1.7439062E3,1.317587E4,4.6148906E3,2.0003125E3,3.8922466E3,8.511531E3,2.696767E3,1.1345535E3,1.2187246E3,2.8165332E2,5.439494E3,2.543713E3,9.431797E2,7.4863086E2,9.527694E3,4.2464277E3,5.7072656E2,3.0880703E3,1.466375E3,1.1841016E2,0E0,0E0,0E0,0E0,0E0,0E0,0E0,0E0,0E0,0E0,0E0,0E0,0E0,0E0,0E0,0E0,0E0,0E0,0E0,0E0,0E0,0E0,0E0,0E0,0E0,0E0,0E0,0E0,0E0,0E0,0E0,0E0],"parents":[2147483647,0,0,1,1,2,2,3,3,4,4,5,5,6,6,7,7,8,8,9,9,10,10,11,11,12,12,13,13,14,14,15,15,16,16,17,17,18,18,19,19,20,20,21,21,22,22,23,23,24,24,25,25,26,26,27,27,28,28,29,29,30,30],"right_children":[2,4,6,8,10,12,14,16,18,20,22,24,26,28,30,32,34,36,38,40,42,44,46,48,50,52,54,56,58,60,62,-1,-1,-1,-1,-1,-1,-1,-1,-1,-1,-1,-1,-1,-1,-1,-1,-1,-1,-1,-1,-1,-1,-1,-1,-1,-1,-1,-1,-1,-1,-1,-1],"split_conditions":[7E0,5E0,1E1,3.3E0,1.2E2,1.25E2,3E0,3E0,3.85E2,3.2E0,3.3E0,6.5E1,2.9E0,8.8E1,9.6E0,1.03E1,2E-1,3.8E2,3.3E0,3.5460994E-1,2E0,8.3E1,1.4534883E0,5.5E1,1.42E0,9E1,3.85E2,3.9E2,1.25E2,6E1,5.4E2,-3.609592E-2,-7.263168E-3,-4.2865932E-2,5.031689E-2,7.3414156E-3,5.3109046E-2,5.250432E-2,-3.4806293E-2,3.334402E-2,8.471332E-3,4.6927553E-2,6.734142E-2,9.536831E-3,-1.912905E-2,-4.749628E-3,2.7713949E-2,7.247386E-2,5.169657E-2,2.7215878E-2,4.66145E-2,3.2164633E-2,1.3699267E-3,4.5993593E-2,1.2599558E-2,6.938021E-2,4.8532393E-2,6.0025405E-2,3.228804E-2,7.189899E-2,5.2852686E-2,8.313015E-2,6.0103375E-2],"split_indices":[22,22,22,12,17,17,12,14,17,12,12,17,12,2,12,8,30,17,10,18,14,3,18,5,12,2,17,17,17,5,17,0,0,0,0,0,0,0,0,0,0,0,0,0,0,0,0,0,0,0,0,0,0,0,0,0,0,0,0,0,0,0,0],"split_type":[0,0,0,0,0,0,0,0,0,0,0,0,0,0,0,0,0,0,0,0,0,0,0,0,0,0,0,0,0,0,0,0,0,0,0,0,0,0,0,0,0,0,0,0,0,0,0,0,0,0,0,0,0,0,0,0,0,0,0,0,0,0,0],"sum_hessian":[9.888914E5,5.658098E5,4.230816E5,3.1329094E5,2.5251888E5,2.7603806E5,1.4704352E5,2.9248422E5,2.0806719E4,2.785802E4,2.2466084E5,4.585341E4,2.3018467E5,8.725952E4,5.978399E4,4.9243082E4,2.4324112E5,1.4523616E4,6.283102E3,2.035152E4,7.5065005E3,2.0021906E5,2.4441783E4,2.5227596E4,2.0625814E4,1.8404878E5,4.613589E4,1.9536229E4,6.77233E4,4.058828E4,1.9195707E4,1.9158422E4,3.008466E4,2.4076689E5,2.4742378E3,9.710753E3,4.8128633E3,3.9542242E2,5.8876797E3,1.1992911E4,8.358608E3,4.8961753E3,2.6103252E3,1.8202727E4,1.8201634E5,1.0849181E4,1.3592603E4,8.0373755E3,1.719022E4,8.407752E3,1.2218063E4,3.000905E4,1.5403972E5,3.2705002E4,1.3430888E4,1.5329542E4,4.2066865E3,1.2254001E4,5.5469297E4,2.1210762E4,1.9377521E4,1.8594865E4,6.008422E2],"tree_param":{"num_deleted":"0","num_feature":"32","num_nodes":"63","size_leaf_vector":"1"}},{"base_weights":[-1.0206861E-3,-4.388096E-1,5.863704E-1,4.3846056E-1,-5.6634766E-1,3.474687E-1,1.0337942E0,3.235121E-1,1.0066532E0,4.0102285E-1,-6.1468667E-1,2.181911E-1,8.562449E-1,8.3799297E-1,1.3225623E0,3.45666E-2,4.8700887E-1,1.0929128E0,-2.0542412E-1,7.8553283E-1,2.0549123E-1,-7.15766E-1,-2.2620289E-1,6.851914E-1,1.0458967E-1,6.805012E-1,1.2425272E0,1.1949509E0,7.0056003E-1,1.1765789E0,1.5391899E0,-3.6611483E-3,2.5557488E-2,1.6721794E-2,4.048275E-2,6.1135273E-2,2.6512368E-2,-3.472354E-2,4.8829056E-2,3.235753E-2,6.928531E-2,-6.5731145E-3,2.4430767E-2,-3.6847204E-2,5.034099E-2,1.1968626E-2,-1.5446812E-2,5.8274474E-2,2.6846308E-2,4.2692713E-2,1.909213E-3,1.984186E-2,4.3768376E-2,5.149723E-2,7.306861E-2,6.9059126E-2,4.9113687E-2,5.2676447E-2,2.9651886E-2,6.854851E-2,4.9838733E-2,7.084709E-2,8.036543E-2],"categories":[],"categories_nodes":[],"categories_segments":[],"categories_sizes":[],"default_left":[0,0,0,0,0,0,0,0,0,0,0,0,0,0,0,0,0,0,0,0,0,0,0,0,0,0,0,0,0,0,0,0,0,0,0,0,0,0,0,0,0,0,0,0,0,0,0,0,0,0,0,0,0,0,0,0,0,0,0,0,0,0,0],"id":3,"left_children":[1,3,5,7,9,11,13,15,17,19,21,23,25,27,29,31,33,35,37,39,41,43,45,47,49,51,53,55,57,59,61,-1,-1,-1,-1,-1,-1,-1,-1,-1,-1,-1,-1,-1,-1,-1,-1,-1,-1,-1,-1,-1,-1,-1,-1,-1,-1,-1,-1,-1,-1,-1,-1],"loss_changes":[2.5396688E5,6.33124E4,4.5079703E4,4.6904473E3,2.3102703E4,1.8083574E4,8.298203E3,2.822294E3,1.2639395E3,1.7674971E3,1.8476281E4,1.1630909E4,3.7800195E3,4.290371E3,1.8721719E3,1.1092164E3,1.8776396E3,8.226338E2,4.6644302E2,6.564546E2,1.4873792E3,1.3622781E4,3.7423276E3,3.053459E3,8.77401E3,2.1159258E3,8.072617E2,9.604492E2,2.3963184E3,1.2361328E3,1.942461E2,0E0,0E0,0E0,0E0,0E0,0E0,0E0,0E0,0E0,0E0,0E0,0E0,0E0,0E0,0E0,0E0,0E0,0E0,0E0,0E0,0E0,0E0,0E0,0E0,0E0,0E0,0E0,0E0,0E0,0E0,0E0,0E0],"parents":[2147483647,0,0,1,1,2,2,3,3,4,4,5,5,6,6,7,7,8,8,9,9,10,10,11,11,12,12,13,13,14,14,15,15,16,16,17,17,18,18,19,19,20,20,21,21,22,22,23,23,24,24,25,25,26,26,27,27,28,28,29,29,30,30],"right_children":[2,4,6,8,10,12,14,16,18,20,22,24,26,28,30,32,34,36,38,40,42,44,46,48,50,52,54,56,58,60,62,-1,-1,-1,-1,-1,-1,-1,-1,-1,-1,-1,-1,-1,-1,-1,-1,-1,-1,-1,-1,-1,-1,-1,-1,-1,-1,-1,-1,-1,-1,-1,-1],"split_conditions":[7E0,7E0,1E1,1.455E2,3E-1,3.2E0,3E0,1E0,2E0,5.9E1,6E0,2E0,7.1E0,8.9E1,8.1E0,2.79E2,3.3E0,4E0,2.15E1,4E0,5E0,2E-1,5.5E1,1E0,3.148148E-1,1.4E0,4.625E0,6E0,5.25E-1,5.9E1,1.13E1,-3.6611483E-3,2.5557488E-2,1.6721794E-2,4.048275E-2,6.1135273E-2,2.6512368E-2,-3.472354E-2,4.8829056E-2,3.235753E-2,6.928531E-2,-6.5731145E-3,2.4430767E-2,-3.6847204E-2,5.034099E-2,1.1968626E-2,-1.5446812E-2,5.8274474E-2,2.6846308E-2,4.2692713E-2,1.909213E-3,1.984186E-2,4.3768376E-2,5.149723E-2,7.306861E-2,6.9059126E-2,4.9113687E-2,5.2676447E-2,2.9651886E-2,6.854851E-2,4.9838733E-2,7.084709E-2,8.036543E-2],"split_indices":[22,16,22,11,18,12,12,7,13,5,22,13,12,2,12,9,12,15,1,12,22,30,5,25,18,7,10,15,18,5,12,0,0,0,0,0,0,0,0,0,0,0,0,0,0,0,0,0,0,0,0,0,0,0,0,0,0,0,0,0,0,0,0],"split_type":[0,0,0,0,0,0,0,0,0,0,0,0,0,0,0,0,0,0,0,0,0,0,0,0,0,0,0,0,0,0,0,0,0,0,0,0,0,0,0,0,0,0,0,0,0,0,0,0,0,0,0,0,0,0,0,0,0,0,0,0,0,0,0],"sum_hessian":[9.8760475E5,5.658621E5,4.2174262E5,7.182301E4,4.9403912E5,2.7494134E5,1.4680127E5,5.9740348E4,1.2082658E4,2.3511291E4,4.7052784E5,2.1923712E5,5.5704234E4,8.748754E4,5.931373E4,2.1588941E4,3.8151406E4,1.1280088E4,8.0257056E2,7.923605E3,1.5587686E4,3.7337734E5,9.7150484E4,4.289431E4,1.7634281E5,3.82895E4,1.7414736E4,2.4315887E4,6.317165E4,3.544233E4,2.3871404E4,1.7608168E4,3.9807744E3,2.590535E4,1.2246058E4,9.163868E3,2.1162195E3,5.682754E2,2.3429518E2,6.442346E3,1.4812588E3,7.1177427E3,8.469943E3,3.6884378E5,4.5335513E3,1.4658295E4,8.249219E4,1.0114654E4,3.2779652E4,1.435451E4,1.6198831E5,1.5594658E4,2.2694842E4,8.839543E3,8.575193E3,1.2958099E4,1.1357788E4,1.4746141E4,4.8425508E4,1.7023982E4,1.8418344E4,8.557472E3,1.5313933E4],"tree_param":{"num_deleted":"0","num_feature":"32","num_nodes":"63","size_leaf_vector":"1"}},{"base_weights":[3.9540282E-3,-3.2618904E-1,7.139106E-1,4.7352257E-1,-4.5941028E-1,5.227832E-1,1.1059759E0,3.9061698E-1,1.1439031E0,-6.453684E-1,-7.947181E-2,9.4155705E-1,3.8044176E-1,9.606608E-1,1.4146668E0,2.548655E-1,7.247869E-1,6.2236094E-1,1.2401811E0,-6.668661E-1,1.0016191E0,-2.2808224E-1,3.2567862E-1,1.1806462E0,7.4940014E-1,2.1553333E-1,6.827726E-1,1.2996436E0,8.255333E-1,1.3100551E0,1.5399088E0,2.9743185E-2,8.109668E-3,2.5606258E-2,4.954447E-2,-2.391323E-3,5.5955697E-2,-2.8536588E-2,6.348716E-2,-3.791539E-2,-1.6055651E-2,6.232257E-2,-5.0780684E-2,1.7483475E-2,-1.4302531E-2,7.168852E-3,3.7245438E-2,7.104213E-2,4.8864838E-2,3.0769184E-2,5.1053476E-2,4.6339773E-2,7.276162E-3,4.9260687E-2,2.5657633E-2,5.532648E-2,6.9350325E-2,3.168301E-2,5.2339792E-2,5.762766E-2,7.158907E-2,6.782025E-2,7.8456335E-2],"categories":[],"categories_nodes":[],"categories_segments":[],"categories_sizes":[],"default_left":[0,0,0,0,0,0,0,0,0,0,0,0,0,0,0,0,0,0,0,0,0,0,0,0,0,0,0,0,0,0,0,0,0,0,0,0,0,0,0,0,0,0,0,0,0,0,0,0,0,0,0,0,0,0,0,0,0,0,0,0,0,0,0],"id":4,"left_children":[1,3,5,7,9,11,13,15,17,19,21,23,25,27,29,31,33,35,37,39,41,43,45,47,49,51,53,55,57,59,61,-1,-1,-1,-1,-1,-1,-1,-1,-1,-1,-1,-1,-1,-1,-1,-1,-1,-1,-1,-1,-1,-1,-1,-1,-1,-1,-1,-1,-1,-1,-1,-1],"loss_changes":[2.3165169E5,7.187333E4,2.3506531E4,5.3532656E3,4.0857273E4,1.2570984E4,4.6090312E3,3.888959E3,5.307881E2,1.3748125E4,1.144186E4,2.4561445E3,7.847451E3,3.2001055E3,4.2703906E2,1.9209194E3,1.4005117E3,5.514515E2,4.8044238E2,1.2116578E4,2.473586E3,4.6566567E3,3.8974321E3,1.1614219E3,1.0788457E3,5.0715703E3,2.848916E3,3.3302734E2,2.1209453E3,3.4066992E2,7.596875E1,0E0,0E0,0E0,0E0,0E0,0E0,0E0,0E0,0E0,0E0,0E0,0E0,0E0,0E0,0E0,0E0,0E0,0E0,0E0,0E0,0E0,0E0,0E0,0E0,0E0,0E0,0E0,0E0,0E0,0E0,0E0,0E0],"parents":[2147483647,0,0,1,1,2,2,3,3,4,4,5,5,6,6,7,7,8,8,9,9,10,10,11,11,12,12,13,13,14,14,15,15,16,16,17,17,18,18,19,19,20,20,21,21,22,22,23,23,24,24,25,25,26,26,27,27,28,28,29,29,30,30],"right_children":[2,4,6,8,10,12,14,16,18,20,22,24,26,28,30,32,34,36,38,40,42,44,46,48,50,52,54,56,58,60,62,-1,-1,-1,-1,-1,-1,-1,-1,-1,-1,-1,-1,-1,-1,-1,-1,-1,-1,-1,-1,-1,-1,-1,-1,-1,-1,-1,-1,-1,-1,-1,-1],"split_conditions":[8E0,7E0,2.9E0,1.4775E2,6E0,9E1,8.1E0,3.3E0,9.2E0,2E-1,1.8E0,8.6E1,4E0,5.5E1,5E0,1E0,1.4534883E0,1.52E2,6E-1,1.8E0,1E0,8.1E1,2.4E0,1E1,4E0,2.847571E-1,5.8E1,1.1318681E0,4E0,1.13E1,4.7E1,2.9743185E-2,8.109668E-3,2.5606258E-2,4.954447E-2,-2.391323E-3,5.5955697E-2,-2.8536588E-2,6.348716E-2,-3.791539E-2,-1.6055651E-2,6.232257E-2,-5.0780684E-2,1.7483475E-2,-1.4302531E-2,7.168852E-3,3.7245438E-2,7.104213E-2,4.8864838E-2,3.0769184E-2,5.1053476E-2,4.6339773E-2,7.276162E-3,4.9260687E-2,2.5657633E-2,5.532648E-2,6.9350325E-2,3.168301E-2,5.2339792E-2,5.762766E-2,7.158907E-2,6.782025E-2,7.8456335E-2],"split_indices":[22,16,12,11,22,2,12,12,8,30,7,2,23,5,23,25,18,11,7,7,24,3,12,16,23,18,5,20,23,12,21,0,0,0,0,0,0,0,0,0,0,0,0,0,0,0,0,0,0,0,0,0,0,0,0,0,0,0,0,0,0,0,0],"split_type":[0,0,0,0,0,0,0,0,0,0,0,0,0,0,0,0,0,0,0,0,0,0,0,0,0,0,0,0,0,0,0,0,0,0,0,0,0,0,0,0,0,0,0,0,0,0,0,0,0,0,0,0,0,0,0,0,0,0,0,0,0,0,0],"sum_hessian":[9.88325E5,6.746167E5,3.137083E5,9.63334E4,5.782833E5,2.1090111E5,1.028072E5,8.57339E4,1.0599498E4,3.8825388E5,1.9002942E5,5.3497695E4,1.5740342E5,6.9906984E4,3.2900215E4,6.096949E4,2.4764408E4,1.6540986E3,8.945399E3,3.8325256E5,5.001311E3,1.3903269E5,5.099674E4,2.3833207E4,2.9664488E4,1.01851336E5,5.555208E4,1.9919482E4,4.9987504E4,1.7939068E4,1.4961146E4,1.3056519E4,4.791297E4,1.3767585E4,1.0996824E4,7.049001E2,9.491986E2,1.4309438E2,8.802306E3,3.030913E5,8.0161266E4,4.4606807E3,5.406304E2,1.2676829E4,1.2635585E5,3.554342E4,1.5453318E4,1.0921161E4,1.2912047E4,1.9869334E4,9.795154E3,9.124743E3,9.272659E4,1.9957395E4,3.5594684E4,6.21303E3,1.3706452E4,2.6775887E4,2.3211615E4,7.8294546E3,1.0109614E4,2.0679885E3,1.2893158E4],"tree_param":{"num_deleted":"0","num_feature":"32","num_nodes":"63","size_leaf_vector":"1"}},{"base_weights":[2.0073827E-3,-3.1246287E-1,6.801758E-1,3.6455882E-1,-4.4896412E-1,5.0833905E-1,1.0909506E0,5.2444416E-1,3.272296E-2,-6.192635E-1,-9.076405E-2,1.0549326E0,3.910456E-1,9.111205E-1,1.2935567E0,4.143723E-1,1.0465701E0,7.138635E-1,-7.432652E-2,5.1232733E-2,-6.8782157E-1,5.818551E-1,-1.7849416E-1,1.2742145E0,9.160409E-1,6.251632E-1,2.0341983E-1,1.248264E0,8.173521E-1,1.1913389E0,1.499374E0,3.1061364E-2,-1.1549111E-3,4.617567E-2,6.658312E-2,1.2597996E-2,4.556414E-2,3.0665997E-2,-8.16896E-3,-2.7492049E-3,4.9869742E-2,-3.522864E-2,4.1244935E-2,1.0623608E-2,3.9973725E-2,-1.8986244E-2,-1.5432067E-3,6.927276E-2,5.6231327E-2,3.5984058E-2,5.2114543E-2,6.595669E-2,2.8355364E-2,-1.5670873E-2,1.5823333E-2,4.5854747E-2,6.586595E-2,5.723198E-2,3.6440868E-2,6.7979746E-2,5.4350864E-2,7.548603E-2,5.6096006E-2],"categories":[],"categories_nodes":[],"categories_segments":[],"categories_sizes":[],"default_left":[0,0,0,0,0,0,0,0,0,0,0,0,0,0,0,0,0,0,0,0,0,0,0,0,0,0,0,0,0,0,0,0,0,0,0,0,0,0,0,0,0,0,0,0,0,0,0,0,0,0,0,0,0,0,0,0,0,0,0,0,0,0,0],"id":5,"left_children":[1,3,5,7,9,11,13,15,17,19,21,23,25,27,29,31,33,35,37,39,41,43,45,47,49,51,53,55,57,59,61,-1,-1,-1,-1,-1,-1,-1,-1,-1,-1,-1,-1,-1,-1,-1,-1,-1,-1,-1,-1,-1,-1,-1,-1,-1,-1,-1,-1,-1,-1,-1,-1],"loss_changes":[2.0982638E5,6.211993E4,2.200036E4,5.9839746E3,3.412404E4,1.4088871E4,3.3470938E3,4.373506E3,2.6743235E3,1.7428484E4,1.0637104E4,1.1801836E3,7.9479316E3,1.537832E3,9.057578E2,5.688872E3,4.624131E2,4.5378223E2,1.9411677E3,3.5349307E3,8.717406E3,1.671585E3,4.737227E3,2.4733594E2,5.87959E2,3.2416582E3,5.869039E3,2.3989258E2,1.102791E3,5.0414453E2,5.2597656E1,0E0,0E0,0E0,0E0,0E0,0E0,0E0,0E0,0E0,0E0,0E0,0E0,0E0,0E0,0E0,0E0,0E0,0E0,0E0,0E0,0E0,0E0,0E0,0E0,0E0,0E0,0E0,0E0,0E0,0E0,0E0,0E0],"parents":[2147483647,0,0,1,1,2,2,3,3,4,4,5,5,6,6,7,7,8,8,9,9,10,10,11,11,12,12,13,13,14,14,15,15,16,16,17,17,18,18,19,19,20,20,21,21,22,22,23,23,24,24,25,25,26,26,27,27,28,28,29,29,30,30],"right_children":[2,4,6,8,10,12,14,16,18,20,22,24,26,28,30,32,34,36,38,40,42,44,46,48,50,52,54,56,58,60,62,-1,-1,-1,-1,-1,-1,-1,-1,-1,-1,-1,-1,-1,-1,-1,-1,-1,-1,-1,-1,-1,-1,-1,-1,-1,-1,-1,-1,-1,-1,-1,-1],"split_conditions":[8E0,5E0,1.1E1,4E0,6E0,1.1E2,2.9E0,1.455E2,5.6E1,1.47E2,1.25E2,5.7E1,6E0,8.7E1,9.9E0,3.85E2,1.5275E2,1.1E0,3.2894737E-1,4E0,2E-1,1.5E0,1E0,5E1,2E0,8.5E1,2E0,5.8E1,1.4E2,5.6E1,5.1E2,3.1061364E-2,-1.1549111E-3,4.617567E-2,6.658312E-2,1.2597996E-2,4.556414E-2,3.0665997E-2,-8.16896E-3,-2.7492049E-3,4.9869742E-2,-3.522864E-2,4.1244935E-2,1.0623608E-2,3.9973725E-2,-1.8986244E-2,-1.5432067E-3,6.927276E-2,5.6231327E-2,3.5984058E-2,5.2114543E-2,6.595669E-2,2.8355364E-2,-1.5670873E-2,1.5823333E-2,4.5854747E-2,6.586595E-2,5.723198E-2,3.6440868E-2,6.7979746E-2,5.4350864E-2,7.548603E-2,5.6096006E-2],"split_indices":[22,15,22,15,22,17,12,11,5,17,17,5,15,2,12,17,11,7,18,12,30,7,7,17,12,2,14,21,17,5,17,0,0,0,0,0,0,0,0,0,0,0,0,0,0,0,0,0,0,0,0,0,0,0,0,0,0,0,0,0,0,0,0],"split_type":[0,0,0,0,0,0,0,0,0,0,0,0,0,0,0,0,0,0,0,0,0,0,0,0,0,0,0,0,0,0,0,0,0,0,0,0,0,0,0,0,0,0,0,0,0,0,0,0,0,0,0,0,0,0,0,0,0,0,0,0,0,0,0],"sum_hessian":[9.8387794E5,6.721838E5,3.116941E5,1.1278537E5,5.5939844E5,2.197655E5,9.1928586E4,7.611192E4,3.667345E4,3.791414E5,1.8025703E5,3.8824637E4,1.8094086E5,4.87075E4,4.3221086E4,6.2863047E4,1.3248871E4,4.9793325E3,3.1694115E4,3.517093E4,3.439705E5,2.0796996E4,1.5946005E5,1.504898E4,2.3775656E4,8.049515E4,1.0044572E5,1.0593611E4,3.811389E4,2.8887758E4,1.4333329E4,4.2680855E4,2.0182193E4,9.260267E3,3.988605E3,1.4923116E3,3.4870208E3,3.6325486E3,2.8061566E4,3.1622814E4,3.548116E3,3.4020428E5,3.7662075E3,7.711535E3,1.3085461E4,6.747858E4,9.198147E4,8.621276E3,6.427705E3,9.309599E3,1.4466058E4,6.210814E3,7.4284336E4,1.8026598E4,8.241912E4,1.8327567E3,8.760855E3,8.109938E3,3.0003951E4,1.1046791E4,1.7840965E4,1.3945075E4,3.8825357E2],"tree_param":{"num_deleted":"0","num_feature":"32","num_nodes":"63","size_leaf_vector":"1"}},{"base_weights":[3.3076394E-3,-2.9637718E-1,6.5059465E-1,4.079643E-1,-4.2096508E-1,4.700328E-1,1.0232763E0,5.8461493E-1,4.593142E-2,-5.8977854E-1,-7.898884E-2,8.5620624E-1,3.4125403E-1,8.7587816E-1,1.312315E0,4.6841675E-1,1.1137705E0,-1.774489E-1,2.8483722E-1,-6.199058E-1,5.2103E-1,-2.1309394E-1,3.1443104E-1,1.1313729E0,6.613912E-1,5.8453864E-1,1.4224848E-1,1.2057657E0,7.4641836E-1,1.1038002E0,1.3720286E0,7.5566657E-3,3.1275686E-2,5.1146682E-2,7.029574E-2,-1.3187567E-2,2.0072645E-2,6.845826E-2,1.0935287E-2,9.180397E-3,-3.2579474E-2,-1.8867249E-2,3.8720477E-2,-1.2246064E-2,3.670495E-2,8.921056E-3,4.2750407E-2,6.897357E-2,4.8461035E-2,2.6869774E-2,5.5667013E-2,2.0352641E-2,4.4640616E-2,8.6867635E-4,2.7236164E-2,5.0412018E-2,6.457797E-2,5.060363E-2,2.9607255E-2,4.1986924E-2,6.326004E-2,6.376793E-2,7.193761E-2],"categories":[],"categories_nodes":[],"categories_segments":[],"categories_sizes":[],"default_left":[0,0,0,0,0,0,0,0,0,0,0,0,0,0,0,0,0,0,0,0,0,0,0,0,0,0,0,0,0,0,0,0,0,0,0,0,0,0,0,0,0,0,0,0,0,0,0,0,0,0,0,0,0,0,0,0,0,0,0,0,0,0,0],"id":6,"left_children":[1,3,5,7,9,11,13,15,17,19,21,23,25,27,29,31,33,35,37,39,41,43,45,47,49,51,53,55,57,59,61,-1,-1,-1,-1,-1,-1,-1,-1,-1,-1,-1,-1,-1,-1,-1,-1,-1,-1,-1,-1,-1,-1,-1,-1,-1,-1,-1,-1,-1,-1,-1,-1],"loss_changes":[1.9050853E5,5.8907992E4,2.091339E4,6.4526035E3,3.292918E4,1.0411477E4,4.319164E3,4.168334E3,1.7659635E3,1.2780672E4,9.94619E3,2.8051914E3,7.6015957E3,2.867371E3,4.2346484E2,2.7713174E3,3.210879E2,8.5461E2,1.1459932E3,9.465672E3,2.2962456E3,4.238791E3,3.5232998E3,8.7031445E2,1.7169307E3,3.864621E3,4.340775E3,3.1820898E2,1.9763906E3,3.2331055E2,1.6802734E2,0E0,0E0,0E0,0E0,0E0,0E0,0E0,0E0,0E0,0E0,0E0,0E0,0E0,0E0,0E0,0E0,0E0,0E0,0E0,0E0,0E0,0E0,0E0,0E0,0E0,0E0,0E0,0E0,0E0,0E0,0E0,0E0],"parents":[2147483647,0,0,1,1,2,2,3,3,4,4,5,5,6,6,7,7,8,8,9,9,10,10,11,11,12,12,13,13,14,14,15,15,16,16,17,17,18,18,19,19,20,20,21,21,22,22,23,23,24,24,25,25,26,26,27,27,28,28,29,29,30,30],"right_children":[2,4,6,8,10,12,14,16,18,20,22,24,26,28,30,32,34,36,38,40,42,44,46,48,50,52,54,56,58,60,62,-1,-1,-1,-1,-1,-1,-1,-1,-1,-1,-1,-1,-1,-1,-1,-1,-1,-1,-1,-1,-1,-1,-1,-1,-1,-1,-1,-1,-1,-1,-1,-1],"split_conditions":[8E0,2E0,2.9E0,4E0,6E0,9E1,7.8E0,1.455E2,6E0,4.9E0,1.9E0,6E0,6E0,5.5E1,1.7E0,1E0,1.5425E2,2.8772378E0,9E1,3E-1,2E0,3.075E1,3.3E0,1E0,2.825E1,1.1049383E0,2E0,1.125E0,9.2E1,1.05E1,1.13E1,7.5566657E-3,3.1275686E-2,5.1146682E-2,7.029574E-2,-1.3187567E-2,2.0072645E-2,6.845826E-2,1.0935287E-2,9.180397E-3,-3.2579474E-2,-1.8867249E-2,3.8720477E-2,-1.2246064E-2,3.670495E-2,8.921056E-3,4.2750407E-2,6.897357E-2,4.8461035E-2,2.6869774E-2,5.5667013E-2,2.0352641E-2,4.4640616E-2,8.6867635E-4,2.7236164E-2,5.0412018E-2,6.457797E-2,5.060363E-2,2.9607255E-2,4.1986924E-2,6.326004E-2,6.376793E-2,7.193761E-2],"split_indices":[22,13,12,15,22,2,12,11,22,12,7,15,15,5,7,7,11,18,2,18,14,1,12,25,1,20,7,20,2,12,12,0,0,0,0,0,0,0,0,0,0,0,0,0,0,0,0,0,0,0,0,0,0,0,0,0,0,0,0,0,0,0,0],"split_type":[0,0,0,0,0,0,0,0,0,0,0,0,0,0,0,0,0,0,0,0,0,0,0,0,0,0,0,0,0,0,0,0,0,0,0,0,0,0,0,0,0,0,0,0,0,0,0,0,0,0,0,0,0,0,0,0,0,0,0,0,0,0,0],"sum_hessian":[9.820894E5,6.7129175E5,3.107976E5,1.008943E5,5.7039744E5,2.0936577E5,1.0143184E5,6.780717E4,3.3087125E4,3.8188297E5,1.8851452E5,5.235517E4,1.570106E5,6.718052E4,3.4251316E4,5.5601348E4,1.2205823E4,1.709943E4,1.5987696E4,3.717999E5,1.0083061E4,1.4059186E5,4.7922652E4,2.169808E4,3.0657092E4,7.064414E4,8.636645E4,1.8929078E4,4.8251445E4,7.633782E3,2.6617535E4,1.8414373E4,3.7186977E4,9.317669E3,2.8881548E3,1.4881927E4,2.2175027E3,9.167499E2,1.5070946E4,1.4104048E4,3.5769584E5,2.2180017E3,7.8650586E3,1.3602273E5,4.569119E3,3.8291195E4,9.631454E3,8.570267E3,1.3127813E4,2.406033E4,6.596762E3,4.483527E4,2.5808871E4,6.591671E4,2.0449742E4,5.739757E3,1.3189322E4,1.7722564E4,3.052888E4,2.9006077E3,4.7331743E3,1.0885997E4,1.5731539E4],"tree_param":{"num_deleted":"0","num_feature":"32","num_nodes":"63","size_leaf_vector":"1"}},{"base_weights":[-4.4061897E-5,-3.6231E-1,4.870661E-1,3.660077E-1,-4.6908274E-1,2.8472087E-1,8.74732E-1,4.342221E-1,-1.5940303E-1,-5.941333E-1,-9.5717445E-2,7.9882145E-1,1.7313038E-1,7.0555884E-1,1.1493456E0,2.5040913E-1,6.337978E-1,5.8161736E-1,-3.2659763E-1,-1.3398312E-1,-6.70729E-1,-2.5700766E-1,3.8548037E-1,9.834899E-1,6.0846007E-1,5.744289E-1,5.623076E-2,1.1043556E0,6.0698223E-1,1.2037687E0,6.893502E-1,3.956922E-2,9.5661246E-4,4.6294775E-2,1.8231044E-2,2.6136653E-3,4.875524E-2,-3.74327E-2,-4.4010445E-3,4.5799296E-3,-1.783087E-2,-2.7738813E-2,-4.024221E-2,3.2312643E-2,-1.4845605E-2,1.3236708E-2,5.7151344E-2,6.202894E-2,4.3257523E-2,2.202458E-2,3.794564E-2,1.5752668E-2,3.841463E-2,-6.153978E-3,1.5499082E-2,6.351517E-2,4.6882164E-2,4.1612215E-2,2.1405729E-2,5.5068713E-2,6.9418445E-2,1.3089621E-2,4.1775204E-2],"categories":[],"categories_nodes":[],"categories_segments":[],"categories_sizes":[],"default_left":[0,0,0,0,0,0,0,0,0,0,0,0,0,0,0,0,0,0,0,0,0,0,0,0,0,0,0,0,0,0,0,0,0,0,0,0,0,0,0,0,0,0,0,0,0,0,0,0,0,0,0,0,0,0,0,0,0,0,0,0,0,0,0],"id":7,"left_children":[1,3,5,7,9,11,13,15,17,19,21,23,25,27,29,31,33,35,37,39,41,43,45,47,49,51,53,55,57,59,61,-1,-1,-1,-1,-1,-1,-1,-1,-1,-1,-1,-1,-1,-1,-1,-1,-1,-1,-1,-1,-1,-1,-1,-1,-1,-1,-1,-1,-1,-1,-1,-1],"loss_changes":[1.7244528E5,4.3582133E4,3.2694016E4,2.5683604E3,2.2820727E4,1.5710639E4,6.6389844E3,2.326337E3,1.02073395E3,1.2904797E4,9.518203E3,1.7157656E3,1.0555948E4,3.476043E3,1.3623672E3,4.1311035E3,2.3900635E3,3.1583984E2,6.7660754E2,2.6243171E3,4.8805E3,3.3110288E3,2.8155166E3,7.52E2,6.0723926E2,2.5519844E3,7.928911E3,4.8256836E2,2.857162E3,9.178281E2,3.600669E2,0E0,0E0,0E0,0E0,0E0,0E0,0E0,0E0,0E0,0E0,0E0,0E0,0E0,0E0,0E0,0E0,0E0,0E0,0E0,0E0,0E0,0E0,0E0,0E0,0E0,0E0,0E0,0E0,0E0,0E0,0E0,0E0],"parents":[2147483647,0,0,1,1,2,2,3,3,4,4,5,5,6,6,7,7,8,8,9,9,10,10,11,11,12,12,13,13,14,14,15,15,16,16,17,17,18,18,19,19,20,20,21,21,22,22,23,23,24,24,25,25,26,26,27,27,28,28,29,29,30,30],"right_children":[2,4,6,8,10,12,14,16,18,20,22,24,26,28,30,32,34,36,38,40,42,44,46,48,50,52,54,56,58,60,62,-1,-1,-1,-1,-1,-1,-1,-1,-1,-1,-1,-1,-1,-1,-1,-1,-1,-1,-1,-1,-1,-1,-1,-1,-1,-1,-1,-1,-1,-1,-1,-1],"split_conditions":[7E0,7E0,1E1,2E0,2E0,1.35E2,3.2E0,1.4534883E0,1.4E2,1.9E2,1.9E0,6.5E1,2E0,1.25E2,4.1E2,1.35E2,4.3E2,6E0,1.02E1,1E0,4E2,1E2,3.9E0,5.5E1,1.64E0,1.4534883E0,3E0,5.8E1,9.1E1,9.6E0,4E0,3.956922E-2,9.5661246E-4,4.6294775E-2,1.8231044E-2,2.6136653E-3,4.875524E-2,-3.74327E-2,-4.4010445E-3,4.5799296E-3,-1.783087E-2,-2.7738813E-2,-4.024221E-2,3.2312643E-2,-1.4845605E-2,1.3236708E-2,5.7151344E-2,6.202894E-2,4.3257523E-2,2.202458E-2,3.794564E-2,1.5752668E-2,3.841463E-2,-6.153978E-3,1.5499082E-2,6.351517E-2,4.6882164E-2,4.1612215E-2,2.1405729E-2,5.5068713E-2,6.9418445E-2,1.3089621E-2,4.1775204E-2],"split_indices":[22,16,22,13,23,17,12,18,17,17,7,17,13,17,17,17,17,22,8,24,17,17,12,5,12,18,23,5,2,12,23,0,0,0,0,0,0,0,0,0,0,0,0,0,0,0,0,0,0,0,0,0,0,0,0,0,0,0,0,0,0,0,0],"split_type":[0,0,0,0,0,0,0,0,0,0,0,0,0,0,0,0,0,0,0,0,0,0,0,0,0,0,0,0,0,0,0,0,0,0,0,0,0,0,0,0,0,0,0,0,0,0,0,0,0,0,0,0,0,0,0,0,0,0,0,0,0,0,0],"sum_hessian":[9.772257E5,5.604311E5,4.1679456E5,7.165481E4,4.887763E5,2.738565E5,1.4293805E5,6.3421152E4,8.233663E3,3.6614338E5,1.2263295E5,4.883944E4,2.2501706E5,8.845394E4,5.448411E4,3.3016676E4,3.0404475E4,1.5148341E3,6.7188286E3,5.225081E4,3.1389256E5,9.184787E4,3.0785082E4,2.4786184E4,2.4053258E4,5.0759527E4,1.7425753E5,1.7527033E4,7.092691E4,4.8717047E4,5.7670615E3,9.886504E3,2.3130174E4,1.4579083E4,1.5825393E4,6.4687836E2,8.6795575E2,2.4248496E3,4.293979E3,2.595419E4,2.6296621E4,1.6835083E5,1.4554172E5,3.884712E3,8.796316E4,2.6555127E4,4.229955E3,7.8069175E3,1.6979268E4,1.1368774E4,1.2684483E4,2.171358E4,2.9045945E4,1.0210627E5,7.2151266E4,8.777021E3,8.750011E3,3.1388986E4,3.953792E4,3.134465E4,1.7372396E4,1.4705894E3,4.296472E3],"tree_param":{"num_deleted":"0","num_feature":"32","num_nodes":"63","size_leaf_vector":"1"}},{"base_weights":[1.8228875E-3,-2.4474311E-1,6.27025E-1,2.3392944E-1,-4.4525468E-1,4.631527E-1,1.018489E0,4.8068517E-1,4.661639E-2,3.922065E-1,-4.9602875E-1,7.3917633E-1,3.0208468E-1,1.103963E0,5.3772366E-1,3.8402674E-1,9.5992E-1,5.1620394E-1,-7.96216E-2,5.9520733E-1,-2.965166E-2,-6.013058E-1,-2.006541E-1,1.105698E0,6.200466E-1,1.8152872E-1,6.715162E-1,9.713054E-1,1.3028259E0,4.1637233E-1,9.827858E-1,2.9497234E-2,-4.688556E-3,5.3374466E-2,1.868146E-2,3.273196E-2,-5.994083E-4,-8.834535E-3,1.50558045E-2,3.9570082E-2,1.3796224E-2,-1.5607945E-2,2.461612E-2,-3.0817915E-2,4.0618982E-2,-1.7683571E-2,2.782476E-3,6.6224806E-2,4.9128037E-2,1.7285055E-2,3.650224E-2,3.7493255E-2,4.1518235E-3,1.6832381E-2,4.3167513E-2,5.718527E-2,3.9562173E-2,6.0885813E-2,7.118588E-2,2.319781E-3,3.2477032E-2,-8.3442196E-2,5.1102098E-2],"categories":[],"categories_nodes":[],"categories_segments":[],"categories_sizes":[],"default_left":[0,0,0,0,0,0,0,0,0,0,0,0,0,0,0,0,0,0,0,0,0,0,0,0,0,0,0,0,0,0,0,0,0,0,0,0,0,0,0,0,0,0,0,0,0,0,0,0,0,0,0,0,0,0,0,0,0,0,0,0,0,0,0],"id":8,"left_children":[1,3,5,7,9,11,13,15,17,19,21,23,25,27,29,31,33,35,37,39,41,43,45,47,49,51,53,55,57,59,61,-1,-1,-1,-1,-1,-1,-1,-1,-1,-1,-1,-1,-1,-1,-1,-1,-1,-1,-1,-1,-1,-1,-1,-1,-1,-1,-1,-1,-1,-1,-1,-1],"loss_changes":[1.5024327E5,6.7087266E4,1.7682656E4,9.537812E3,2.0947258E4,8.638746E3,3.3413984E3,4.1241504E3,6.9541514E3,2.4116494E3,1.4442758E4,3.1251797E3,5.465203E3,1.8193516E3,6.6254443E2,7.291129E3,9.4170996E2,1.8173989E3,3.417105E3,1.1905103E3,1.3496691E3,7.2874453E3,4.786591E3,4.705625E2,1.6304453E3,5.1791943E3,1.9389482E3,1.2844219E3,2.808086E2,8.32802E2,2.7717432E2,0E0,0E0,0E0,0E0,0E0,0E0,0E0,0E0,0E0,0E0,0E0,0E0,0E0,0E0,0E0,0E0,0E0,0E0,0E0,0E0,0E0,0E0,0E0,0E0,0E0,0E0,0E0,0E0,0E0,0E0,0E0,0E0],"parents":[2147483647,0,0,1,1,2,2,3,3,4,4,5,5,6,6,7,7,8,8,9,9,10,10,11,11,12,12,13,13,14,14,15,15,16,16,17,17,18,18,19,19,20,20,21,21,22,22,23,23,24,24,25,25,26,26,27,27,28,28,29,29,30,30],"right_children":[2,4,6,8,10,12,14,16,18,20,22,24,26,28,30,32,34,36,38,40,42,44,46,48,50,52,54,56,58,60,62,-1,-1,-1,-1,-1,-1,-1,-1,-1,-1,-1,-1,-1,-1,-1,-1,-1,-1,-1,-1,-1,-1,-1,-1,-1,-1,-1,-1,-1,-1,-1,-1],"split_conditions":[3E0,6E0,3.2E0,4E0,1E2,6E0,3.85E2,1.455E2,5.9E1,1.05E2,2E0,5.4E1,2.825E1,8E0,1.4375E2,3.85E2,1E0,3.85E2,1.64E1,2.684841E-1,1.71E0,2E-1,1.3E0,4.4E1,9E1,4.642857E-1,1E0,6E1,3.8E2,4E0,1.3E1,2.9497234E-2,-4.688556E-3,5.3374466E-2,1.868146E-2,3.273196E-2,-5.994083E-4,-8.834535E-3,1.50558045E-2,3.9570082E-2,1.3796224E-2,-1.5607945E-2,2.461612E-2,-3.0817915E-2,4.0618982E-2,-1.7683571E-2,2.782476E-3,6.6224806E-2,4.9128037E-2,1.7285055E-2,3.650224E-2,3.7493255E-2,4.1518235E-3,1.6832381E-2,4.3167513E-2,5.718527E-2,3.9562173E-2,6.0885813E-2,7.118588E-2,2.319781E-3,3.2477032E-2,-8.3442196E-2,5.1102098E-2],"split_indices":[23,15,12,15,17,15,17,11,5,3,23,5,1,12,11,17,26,17,8,18,12,30,7,5,0,18,25,5,17,23,1,0,0,0,0,0,0,0,0,0,0,0,0,0,0,0,0,0,0,0,0,0,0,0,0,0,0,0,0,0,0,0,0],"split_type":[0,0,0,0,0,0,0,0,0,0,0,0,0,0,0,0,0,0,0,0,0,0,0,0,0,0,0,0,0,0,0,0,0,0,0,0,0,0,0,0,0,0,0,0,0,0,0,0,0,0,0,0,0,0,0,0,0,0,0,0,0,0,0],"sum_hessian":[9.7462956E5,6.989717E5,2.7565788E5,2.0635323E5,4.9261847E5,1.9431802E5,8.133987E4,8.904595E4,1.1730728E5,2.815871E4,4.6445975E5,7.1603445E4,1.2271458E5,6.905938E4,1.2280482E4,7.41034E4,1.4942555E4,2.485267E4,9.245461E4,1.9010105E4,9.148607E3,3.4241466E5,1.2204507E5,1.7560174E4,5.404327E4,9.252427E4,3.0190303E4,4.1432383E4,2.7627E4,9.652491E3,2.6279912E3,5.1784996E4,2.2318398E4,1.262462E4,2.317934E3,1.9691258E4,5.161413E3,7.36728E4,1.8781812E4,1.1772892E4,7.237213E3,5.9364404E3,3.2121667E3,3.3880828E5,3.6063953E3,7.642023E4,4.5624848E4,6.316718E3,1.1243455E4,1.5469406E4,3.8573863E4,1.3664112E4,7.8860164E4,1.0997826E4,1.9192477E4,2.1161055E4,2.027133E4,1.6225871E4,1.1401129E4,3.7324585E3,5.9200327E3,3.712742E1,2.5908638E3],"tree_param":{"num_deleted":"0","num_feature":"32","num_nodes":"63","size_leaf_vector":"1"}},{"base_weights":[-4.1378536E-3,-4.435331E-1,3.375384E-1,3.7761042E-1,-5.147694E-1,1.0346093E-1,6.99192E-1,1.8571694E-1,7.207737E-1,-5.386138E-1,6.406541E-1,4.9305627E-1,-8.903101E-3,5.77301E-1,1.0834125E0,6.8379335E-2,9.2481816E-1,8.194999E-1,-2.468297E-1,-6.1096853E-1,-2.1982498E-1,-1.3148588E-1,9.054812E-1,4.1085234E-1,9.204835E-1,-1.4063884E-1,3.3074862E-1,1.0032933E0,4.7588345E-1,9.5858246E-1,1.2727636E0,-1.2970245E-2,1.2053822E-2,-8.974784E-2,4.8830014E-2,2.5036318E-2,4.7807366E-2,-4.9466975E-3,-8.5277684E-2,-3.1257045E-2,3.751296E-2,-2.033866E-2,4.2452835E-3,-2.2874478E-2,4.4767644E-2,2.1180602E-2,5.9706736E-2,6.406105E-2,1.8546378E-2,5.352325E-2,2.1735696E-2,1.9289868E-2,-9.863982E-3,8.500542E-3,3.594251E-2,5.9445262E-2,4.396291E-2,3.816232E-2,1.7715015E-2,5.4494496E-2,3.8424816E-2,6.0875595E-2,6.951364E-2],"categories":[],"categories_nodes":[],"categories_segments":[],"categories_sizes":[],"default_left":[0,0,0,0,0,0,0,0,0,0,0,0,0,0,0,0,0,0,0,0,0,0,0,0,0,0,0,0,0,0,0,0,0,0,0,0,0,0,0,0,0,0,0,0,0,0,0,0,0,0,0,0,0,0,0,0,0,0,0,0,0,0,0],"id":9,"left_children":[1,3,5,7,9,11,13,15,17,19,21,23,25,27,29,31,33,35,37,39,41,43,45,47,49,51,53,55,57,59,61,-1,-1,-1,-1,-1,-1,-1,-1,-1,-1,-1,-1,-1,-1,-1,-1,-1,-1,-1,-1,-1,-1,-1,-1,-1,-1,-1,-1,-1,-1,-1,-1],"loss_changes":[1.4550834E5,2.480096E4,4.6156543E4,2.2285205E3,1.0749E4,1.4490029E4,1.0032023E4,1.8826719E3,1.1599102E3,8.8165625E3,1.6134644E3,2.6026465E3,1.1495222E4,7.025754E3,1.2170703E3,1.0608271E3,4.2238867E2,4.78833E2,2.4243904E2,6.0110156E3,4.0284404E3,6.758682E2,8.161206E2,2.1586074E3,8.6969727E2,5.519789E3,4.478632E3,7.1790234E2,4.5894023E3,7.746367E2,1.2966797E2,0E0,0E0,0E0,0E0,0E0,0E0,0E0,0E0,0E0,0E0,0E0,0E0,0E0,0E0,0E0,0E0,0E0,0E0,0E0,0E0,0E0,0E0,0E0,0E0,0E0,0E0,0E0,0E0,0E0,0E0,0E0,0E0],"parents":[2147483647,0,0,1,1,2,2,3,3,4,4,5,5,6,6,7,7,8,8,9,9,10,10,11,11,12,12,13,13,14,14,15,15,16,16,17,17,18,18,19,19,20,20,21,21,22,22,23,23,24,24,25,25,26,26,27,27,28,28,29,29,30,30],"right_children":[2,4,6,8,10,12,14,16,18,20,22,24,26,28,30,32,34,36,38,40,42,44,46,48,50,52,54,56,58,60,62,-1,-1,-1,-1,-1,-1,-1,-1,-1,-1,-1,-1,-1,-1,-1,-1,-1,-1,-1,-1,-1,-1,-1,-1,-1,-1,-1,-1,-1,-1,-1,-1],"split_conditions":[6E0,4E0,9E0,7.8E1,5.5E0,2E0,4.38E0,1.465E2,2E0,2E0,1.2E1,1.455E2,1.8E0,8.8E1,9.8E0,1E0,6E-1,1.04E1,1.45E2,2E-1,1.3E0,3.9E0,1.5E0,8.8E1,6E0,8.1E1,2.6E0,3E0,5.7E1,6.2E1,6E0,-1.2970245E-2,1.2053822E-2,-8.974784E-2,4.8830014E-2,2.5036318E-2,4.7807366E-2,-4.9466975E-3,-8.5277684E-2,-3.1257045E-2,3.751296E-2,-2.033866E-2,4.2452835E-3,-2.2874478E-2,4.4767644E-2,2.1180602E-2,5.9706736E-2,6.406105E-2,1.8546378E-2,5.352325E-2,2.1735696E-2,1.9289868E-2,-9.863982E-3,8.500542E-3,3.594251E-2,5.9445262E-2,4.396291E-2,3.816232E-2,1.7715015E-2,5.4494496E-2,3.8424816E-2,6.0875595E-2,6.951364E-2],"split_indices":[22,15,22,5,12,13,12,11,13,23,16,11,7,2,12,7,7,8,3,30,7,7,7,2,16,3,12,13,5,5,23,0,0,0,0,0,0,0,0,0,0,0,0,0,0,0,0,0,0,0,0,0,0,0,0,0,0,0,0,0,0,0,0],"split_type":[0,0,0,0,0,0,0,0,0,0,0,0,0,0,0,0,0,0,0,0,0,0,0,0,0,0,0,0,0,0,0,0,0,0,0,0,0,0,0,0,0,0,0,0,0,0,0,0,0,0,0,0,0,0,0,0,0,0,0,0,0,0,0],"sum_hessian":[9.692056E5,4.2397444E5,5.452312E5,3.3844035E4,3.901304E5,3.3099797E5,2.1423327E5,2.170814E4,1.2135894E4,3.8224312E5,7.887269E3,7.409266E4,2.569053E5,1.6264153E5,5.1591734E4,1.8735873E4,2.972269E3,1.1012569E4,1.1233246E3,3.115333E5,7.070982E4,2.0145574E3,5.872712E3,6.2144746E4,1.1947913E4,1.851104E5,7.179489E4,3.1271523E4,1.3137E5,3.1100672E4,2.0491062E4,6.4646914E3,1.2271181E4,5.4274113E1,2.9179949E3,3.3070806E3,7.7054883E3,1.0218571E3,1.0146746E2,3.0832428E5,3.2090305E3,4.382382E4,2.6886002E4,1.5299374E3,4.8461993E2,2.2018865E3,3.6708252E3,2.7228975E3,5.9421848E4,9.127416E3,2.820497E3,1.7980713E4,1.6712969E5,5.077046E4,2.1024432E4,1.2519532E4,1.875199E4,3.905428E4,9.231573E4,1.8388691E4,1.2711981E4,1.3953155E4,6.537908E3],"tree_param":{"num_deleted":"0","num_feature":"32","num_nodes":"63","size_leaf_vector":"1"}},{"base_weights":[-1.2981035E-3,-4.216233E-1,3.2493687E-1,2.3812065E-1,-5.0458896E-1,1.03250496E-1,6.692708E-1,4.3640697E-1,-1.09092146E-1,4.9491435E-2,-5.63018E-1,5.800147E-1,6.8375887E-3,5.2135295E-1,9.746039E-1,1.896163E-1,6.966128E-1,-2.10557E-1,2.8148094E-1,2.999062E-1,-2.2421442E-1,-5.957027E-1,7.1878485E-2,7.932526E-1,3.845958E-1,3.9285478E-1,-9.631764E-2,9.346187E-1,4.2429987E-1,1.0446994E0,4.5320165E-1,5.282161E-3,5.026971E-2,4.139271E-2,1.9266488E-2,-5.3350157E-3,-3.0947436E-2,5.330209E-2,3.178449E-3,-8.013907E-3,2.3737358E-2,-3.0900082E-2,8.9671154E-4,-2.3926334E-2,-3.6924906E-2,-3.8229872E-3,3.1411584E-2,5.34212E-2,3.4342017E-2,4.933804E-3,2.5010169E-2,1.4275086E-2,4.4193424E-2,-1.0445756E-2,9.17691E-3,5.5459708E-2,3.7762336E-2,4.2070936E-2,1.6643954E-2,4.6388317E-2,6.076331E-2,9.1779744E-4,3.242294E-2],"categories":[],"categories_nodes":[],"categories_segments":[],"categories_sizes":[],"default_left":[0,0,0,0,0,0,0,0,0,0,0,0,0,0,0,0,0,0,0,0,0,0,0,0,0,0,0,0,0,0,0,0,0,0,0,0,0,0,0,0,0,0,0,0,0,0,0,0,0,0,0,0,0,0,0,0,0,0,0,0,0,0,0],"id":10,"left_children":[1,3,5,7,9,11,13,15,17,19,21,23,25,27,29,31,33,35,37,39,41,43,45,47,49,51,53,55,57,59,61,-1,-1,-1,-1,-1,-1,-1,-1,-1,-1,-1,-1,-1,-1,-1,-1,-1,-1,-1,-1,-1,-1,-1,-1,-1,-1,-1,-1,-1,-1,-1,-1],"loss_changes":[1.325512E5,2.3121273E4,4.1543746E4,3.2488264E3,1.2147695E4,1.521871E4,9.625953E3,1.928498E3,6.799207E2,2.4535593E3,7.043742E3,2.3200742E3,1.0966251E4,5.7586562E3,2.541336E3,1.0559586E3,5.966177E2,5.774533E2,6.0477954E2,1.5042513E3,1.6309326E3,5.4006484E3,1.3717397E3,7.7828516E2,9.60583E2,3.0607363E3,6.8481465E3,8.534336E2,4.4339863E3,1.2206797E3,7.001846E2,0E0,0E0,0E0,0E0,0E0,0E0,0E0,0E0,0E0,0E0,0E0,0E0,0E0,0E0,0E0,0E0,0E0,0E0,0E0,0E0,0E0,0E0,0E0,0E0,0E0,0E0,0E0,0E0,0E0,0E0,0E0,0E0],"parents":[2147483647,0,0,1,1,2,2,3,3,4,4,5,5,6,6,7,7,8,8,9,9,10,10,11,11,12,12,13,13,14,14,15,15,16,16,17,17,18,18,19,19,20,20,21,21,22,22,23,23,24,24,25,25,26,26,27,27,28,28,29,29,30,30],"right_children":[2,4,6,8,10,12,14,16,18,20,22,24,26,28,30,32,34,36,38,40,42,44,46,48,50,52,54,56,58,60,62,-1,-1,-1,-1,-1,-1,-1,-1,-1,-1,-1,-1,-1,-1,-1,-1,-1,-1,-1,-1,-1,-1,-1,-1,-1,-1,-1,-1,-1,-1,-1,-1],"split_conditions":[6E0,2E0,9E0,4E0,1.47E2,1.47E2,3.2E0,1.12E2,1.55E1,1E0,3E0,7.2E1,2E0,8.8E1,4.1E2,1.4775E2,1E0,1.4E0,6.5E1,2E0,1E0,3.9E2,1.65E1,5.5E1,1E0,1.455E2,3E0,6E0,1.3E2,8E0,9.7E1,5.282161E-3,5.026971E-2,4.139271E-2,1.9266488E-2,-5.3350157E-3,-3.0947436E-2,5.330209E-2,3.178449E-3,-8.013907E-3,2.3737358E-2,-3.0900082E-2,8.9671154E-4,-2.3926334E-2,-3.6924906E-2,-3.8229872E-3,3.1411584E-2,5.34212E-2,3.4342017E-2,4.933804E-3,2.5010169E-2,1.4275086E-2,4.4193424E-2,-1.0445756E-2,9.17691E-3,5.5459708E-2,3.7762336E-2,4.2070936E-2,1.6643954E-2,4.6388317E-2,6.076331E-2,9.1779744E-4,3.242294E-2],"split_indices":[22,13,22,15,17,17,12,3,8,24,23,17,13,2,17,11,19,7,0,14,19,17,8,5,7,11,23,15,17,12,0,0,0,0,0,0,0,0,0,0,0,0,0,0,0,0,0,0,0,0,0,0,0,0,0,0,0,0,0,0,0,0,0],"split_type":[0,0,0,0,0,0,0,0,0,0,0,0,0,0,0,0,0,0,0,0,0,0,0,0,0,0,0,0,0,0,0,0,0,0,0,0,0,0,0,0,0,0,0,0,0,0,0,0,0,0,0,0,0,0,0,0,0,0,0,0,0,0,0],"sum_hessian":[9.6664256E5,4.2240725E5,5.442353E5,4.718533E4,3.752219E5,3.310828E5,2.1315252E5,3.003336E4,1.7151967E4,3.5793527E4,3.394284E5,5.5689055E4,2.7539378E5,1.435941E5,6.9558414E4,1.5415796E4,1.46175625E4,1.3615732E4,3.536235E3,1.8691967E4,1.7101559E4,3.2281016E5,1.6618252E4,2.662747E4,2.9061582E4,5.8073035E4,2.1732073E5,2.730562E4,1.16288484E5,6.131362E4,8.244792E3,1.39791E4,1.4366965E3,1.0280033E4,4.3375303E3,1.0857198E4,2.758534E3,7.66995E2,2.7692402E3,5.146489E3,1.3545479E4,6.510669E3,1.0590891E4,1.7731584E5,1.454943E5,1.3121456E4,3.4967961E3,7.420561E3,1.920691E4,8.368464E3,2.0693117E4,4.7656742E4,1.0416295E4,1.5497033E5,6.2350406E4,1.3832574E4,1.3473045E4,2.090237E4,9.538611E4,3.6383555E4,2.4930068E4,2.555586E3,5.689206E3],"tree_param":{"num_deleted":"0","num_feature":"32","num_nodes":"63","size_leaf_vector":"1"}},{"base_weights":[1.1298208E-3,-2.3999938E-1,5.2825695E-1,2.3021594E-1,-3.5799316E-1,3.8168907E-1,8.909611E-1,4.2676085E-1,4.5888126E-3,-5.106718E-1,-2.7458344E-2,8.295361E-1,2.753308E-1,7.934511E-1,1.1471192E0,3.7187612E-1,9.451792E-1,4.1679078E-1,-9.396106E-2,-1.02641545E-1,-5.8486485E-1,-3.2657868E-1,1.6040997E-1,1.0179808E0,6.9656706E-1,1.6402237E-1,5.765229E-1,7.0498717E-1,1.051835E0,1.1752106E0,5.516957E-1,2.5774145E-2,5.6724753E-3,-6.3937837E-3,5.0017685E-2,-4.6004127E-3,2.692543E-2,-2.4251206E-2,2.4675825E-4,1.0785321E-2,-1.2943073E-2,-2.995349E-2,3.8081836E-2,-3.570043E-3,-2.479743E-2,1.5890218E-2,-9.12508E-3,5.755173E-2,4.4001665E-2,3.0537358E-2,4.6288263E-2,2.2039143E-2,2.0493309E-3,3.5420075E-2,4.31815E-3,4.8725378E-2,3.0981168E-2,5.590871E-2,3.5594434E-2,5.3349223E-2,6.376025E-2,-4.052958E-2,3.239281E-2],"categories":[],"categories_nodes":[],"categories_segments":[],"categories_sizes":[],"default_left":[0,0,0,0,0,0,0,0,0,0,0,0,0,0,0,0,0,0,0,0,0,0,0,0,0,0,0,0,0,0,0,0,0,0,0,0,0,0,0,0,0,0,0,0,0,0,0,0,0,0,0,0,0,0,0,0,0,0,0,0,0,0,0],"id":11,"left_children":[1,3,5,7,9,11,13,15,17,19,21,23,25,27,29,31,33,35,37,39,41,43,45,47,49,51,53,55,57,59,61,-1,-1,-1,-1,-1,-1,-1,-1,-1,-1,-1,-1,-1,-1,-1,-1,-1,-1,-1,-1,-1,-1,-1,-1,-1,-1,-1,-1,-1,-1,-1,-1],"loss_changes":[1.22489305E5,3.668596E4,1.6078648E4,5.882017E3,2.6674922E4,1.0260484E4,2.172461E3,2.0163027E3,2.5086482E3,1.0945531E4,9.385489E3,1.0344668E3,5.8359365E3,1.4397891E3,4.0006055E2,2.3789453E3,4.0197217E2,7.380371E2,1.9275336E3,2.7667893E3,5.8525234E3,2.7845825E3,5.536891E3,3.1180273E2,4.7574805E2,4.32826E3,3.036291E3,1.0796367E3,3.609961E2,2.4523828E2,1.4316376E2,0E0,0E0,0E0,0E0,0E0,0E0,0E0,0E0,0E0,0E0,0E0,0E0,0E0,0E0,0E0,0E0,0E0,0E0,0E0,0E0,0E0,0E0,0E0,0E0,0E0,0E0,0E0,0E0,0E0,0E0,0E0,0E0],"parents":[2147483647,0,0,1,1,2,2,3,3,4,4,5,5,6,6,7,7,8,8,9,9,10,10,11,11,12,12,13,13,14,14,15,15,16,16,17,17,18,18,19,19,20,20,21,21,22,22,23,23,24,24,25,25,26,26,27,27,28,28,29,29,30,30],"right_children":[2,4,6,8,10,12,14,16,18,20,22,24,26,28,30,32,34,36,38,40,42,44,46,48,50,52,54,56,58,60,62,-1,-1,-1,-1,-1,-1,-1,-1,-1,-1,-1,-1,-1,-1,-1,-1,-1,-1,-1,-1,-1,-1,-1,-1,-1,-1,-1,-1,-1,-1,-1,-1],"split_conditions":[8E0,3E0,1.1E1,6E0,2E0,1.25E2,5.5E0,1.34E2,1.65E2,2E2,1E0,5.8E1,1.9E0,1.4222223E0,5.1E2,3.85E2,7.55E1,5E0,5.3E1,1E2,2E-1,1E0,3.9E2,5E1,4.865E0,3E0,3.85E2,1.4E2,6.4E1,1.03E1,9.62963E-1,2.5774145E-2,5.6724753E-3,-6.3937837E-3,5.0017685E-2,-4.6004127E-3,2.692543E-2,-2.4251206E-2,2.4675825E-4,1.0785321E-2,-1.2943073E-2,-2.995349E-2,3.8081836E-2,-3.570043E-3,-2.479743E-2,1.5890218E-2,-9.12508E-3,5.755173E-2,4.4001665E-2,3.0537358E-2,4.6288263E-2,2.2039143E-2,2.0493309E-3,3.5420075E-2,4.31815E-3,4.8725378E-2,3.0981168E-2,5.590871E-2,3.5594434E-2,5.3349223E-2,6.376025E-2,-4.052958E-2,3.239281E-2],"split_indices":[22,13,22,16,23,17,12,3,17,17,7,5,7,20,17,17,9,22,21,17,30,24,17,17,10,13,17,17,5,12,20,0,0,0,0,0,0,0,0,0,0,0,0,0,0,0,0,0,0,0,0,0,0,0,0,0,0,0,0,0,0,0,0],"split_type":[0,0,0,0,0,0,0,0,0,0,0,0,0,0,0,0,0,0,0,0,0,0,0,0,0,0,0,0,0,0,0,0,0,0,0,0,0,0,0,0,0,0,0,0,0,0,0,0,0,0,0,0,0,0,0,0,0,0,0,0,0,0,0],"sum_hessian":[9.636763E5,6.6121225E5,3.0246406E5,1.3263769E5,5.2857456E5,2.1541819E5,8.704587E4,7.088641E4,6.175128E4,3.6156262E5,1.670119E5,4.133857E4,1.7407961E5,6.3052332E4,2.3993537E4,6.4103258E4,6.783148E3,1.19137E4,4.9837582E4,5.562941E4,3.0593322E5,6.4428543E4,1.0258337E5,1.7096285E4,2.4242285E4,1.27108516E5,4.6971094E4,4.6976324E4,1.607601E4,2.2910686E4,1.0828502E3,4.1204223E4,2.2899035E4,3.315913E2,6.4515566E3,2.2999688E3,9.613731E3,1.0057931E4,3.9779652E4,1.8312033E4,3.7317375E4,3.0274056E5,3.192652E3,2.5704387E4,3.8724156E4,7.031112E4,3.2272246E4,8.695026E3,8.40126E3,1.764333E4,6.5989556E3,3.911557E4,8.799295E4,3.7012035E4,9.95906E3,1.1294668E4,3.5681656E4,1.3447252E4,2.6287578E3,1.1013678E4,1.1897009E4,7.041634E1,1.01243384E3],"tree_param":{"num_deleted":"0","num_feature":"32","num_nodes":"63","size_leaf_vector":"1"}},{"base_weights":[2.0414042E-4,-3.8548076E-1,2.9955435E-1,1.1558826E-1,-4.7315836E-1,1.4977936E-1,7.289084E-1,3.691763E-1,-1.4914446E-1,1.23810954E-1,-5.2160996E-1,7.3140496E-1,6.999665E-2,5.415334E-1,9.6026987E-1,1.2165378E-1,6.1306244E-1,-2.7004516E-1,1.416334E-1,-1.0735183E-1,4.5375073E-1,7.467516E-2,-5.547954E-1,1.0723661E0,6.580834E-1,3.661434E-1,-6.710882E-2,8.6008286E-1,4.1426662E-1,1.032007E0,5.8086324E-1,-3.8739752E-3,3.547227E-2,5.1662643E-2,1.9287083E-2,-1.8081909E-2,1.0365564E-2,1.7932426E-2,-1.1512536E-2,-8.019681E-3,6.8269975E-2,1.4940778E-2,4.8873343E-2,1.1713732E-2,-1.2043226E-2,-2.8466875E-2,3.83561E-2,5.8485903E-2,4.770848E-2,2.2931362E-2,3.993772E-2,4.911491E-2,1.4482376E-2,1.48784015E-2,-9.466882E-3,5.6125887E-2,3.7688017E-2,3.3980653E-2,1.1375002E-2,4.658225E-2,6.0406405E-2,4.441294E-2,2.116552E-2],"categories":[],"categories_nodes":[],"categories_segments":[],"categories_sizes":[],"default_left":[0,0,0,0,0,0,0,0,0,0,0,0,0,0,0,0,0,0,0,0,0,0,0,0,0,0,0,0,0,0,0,0,0,0,0,0,0,0,0,0,0,0,0,0,0,0,0,0,0,0,0,0,0,0,0,0,0,0,0,0,0,0,0],"id":12,"left_children":[1,3,5,7,9,11,13,15,17,19,21,23,25,27,29,31,33,35,37,39,41,43,45,47,49,51,53,55,57,59,61,-1,-1,-1,-1,-1,-1,-1,-1,-1,-1,-1,-1,-1,-1,-1,-1,-1,-1,-1,-1,-1,-1,-1,-1,-1,-1,-1,-1,-1,-1,-1,-1],"loss_changes":[1.1080063E5,1.8424062E4,3.474577E4,4.1929136E3,1.0323617E4,1.8588426E4,6.056758E3,1.9255435E3,1.0743351E3,2.0437651E3,6.532547E3,1.2065879E3,1.430318E4,3.1295488E3,1.7006172E3,1.8534926E3,1.5339214E3,9.438645E2,7.245182E2,1.2313931E3,8.951814E2,8.76663E2,6.0124297E3,9.613574E1,1.1152227E3,5.253701E3,1.0733095E4,6.1328125E2,2.7340264E3,9.271758E2,4.8099365E2,0E0,0E0,0E0,0E0,0E0,0E0,0E0,0E0,0E0,0E0,0E0,0E0,0E0,0E0,0E0,0E0,0E0,0E0,0E0,0E0,0E0,0E0,0E0,0E0,0E0,0E0,0E0,0E0,0E0,0E0,0E0,0E0],"parents":[2147483647,0,0,1,1,2,2,3,3,4,4,5,5,6,6,7,7,8,8,9,9,10,10,11,11,12,12,13,13,14,14,15,15,16,16,17,17,18,18,19,19,20,20,21,21,22,22,23,23,24,24,25,25,26,26,27,27,28,28,29,29,30,30],"right_children":[2,4,6,8,10,12,14,16,18,20,22,24,26,28,30,32,34,36,38,40,42,44,46,48,50,52,54,56,58,60,62,-1,-1,-1,-1,-1,-1,-1,-1,-1,-1,-1,-1,-1,-1,-1,-1,-1,-1,-1,-1,-1,-1,-1,-1,-1,-1,-1,-1,-1,-1,-1,-1],"split_conditions":[6E0,3E0,4E0,6E0,1.25E2,1E2,2.49E0,1.4534883E0,1.39E1,1.42E0,8.5E1,9E1,3E0,9.1E1,3.85E2,1.4325E2,1.4563106E0,2.522068E0,1.64E0,2.96E1,4.5E0,4E2,2E-1,5E1,2E0,8.9E1,9.1E1,8.4E1,6E1,8E0,9.2E1,-3.8739752E-3,3.547227E-2,5.1662643E-2,1.9287083E-2,-1.8081909E-2,1.0365564E-2,1.7932426E-2,-1.1512536E-2,-8.019681E-3,6.8269975E-2,1.4940778E-2,4.8873343E-2,1.1713732E-2,-1.2043226E-2,-2.8466875E-2,3.83561E-2,5.8485903E-2,4.770848E-2,2.2931362E-2,3.993772E-2,4.911491E-2,1.4482376E-2,1.48784015E-2,-9.466882E-3,5.6125887E-2,3.7688017E-2,3.3980653E-2,1.1375002E-2,4.658225E-2,6.0406405E-2,4.441294E-2,2.116552E-2],"split_indices":[22,13,23,16,17,17,12,18,8,12,3,2,13,2,17,11,18,18,12,8,12,17,30,17,12,2,2,2,5,12,2,0,0,0,0,0,0,0,0,0,0,0,0,0,0,0,0,0,0,0,0,0,0,0,0,0,0,0,0,0,0,0,0],"split_type":[0,0,0,0,0,0,0,0,0,0,0,0,0,0,0,0,0,0,0,0,0,0,0,0,0,0,0,0,0,0,0,0,0,0,0,0,0,0,0,0,0,0,0,0,0,0,0,0,0,0,0,0,0,0,0,0,0,0,0,0,0,0,0],"sum_hessian":[9.596839E5,4.193674E5,5.4031644E5,6.245314E4,3.5691428E5,4.0058122E5,1.3973523E5,3.1897586E4,3.0555555E4,2.6793242E4,3.3012103E5,4.8318344E4,3.5226288E5,7.7210586E4,6.2524652E4,1.5832262E4,1.6065324E4,2.1582178E4,8.973376E3,1.5755768E4,1.1037475E4,1.7403693E4,3.1271734E5,8.546769E3,3.9771574E4,1.1147481E5,2.4078806E5,2.2037951E4,5.5172633E4,5.257961E4,9.945045E3,1.1827166E4,4.0050957E3,5.6375405E3,1.0427784E4,1.8108152E4,3.4740254E3,5.6666445E3,3.3067317E3,1.5209764E4,5.4600415E2,8.520058E3,2.517417E3,1.1558126E4,5.8455674E3,3.0931575E5,3.4015786E3,4.6768853E3,3.8698835E3,1.6452395E4,2.3319178E4,1.2308588E4,9.916623E4,6.044475E4,1.8034331E5,6.3486167E3,1.5689336E4,2.2789475E4,3.2383158E4,3.350149E4,1.907812E4,3.3668433E3,6.5782017E3],"tree_param":{"num_deleted":"0","num_feature":"32","num_nodes":"63","size_leaf_vector":"1"}},{"base_weights":[4.8828206E-4,-2.0259726E-1,5.207631E-1,1.8662566E-1,-3.659905E-1,2.9890418E-1,7.417216E-1,8.4826756E-1,1.3122891E-1,8.9844E-2,-4.3318027E-1,6.9912803E-1,1.6719122E-1,8.409035E-1,3.8295728E-1,9.7051847E-1,3.2019588E-1,5.627468E-1,5.9818894E-2,-1.958021E-1,3.3101666E-1,7.684348E-2,-4.9238837E-1,1.0166118E0,5.542056E-1,4.8158374E-1,7.270255E-3,7.374443E-1,1.1098685E0,3.1993455E-1,1.1961313E0,6.0237583E-2,3.9123796E-2,7.053723E-3,4.522197E-2,4.304045E-2,2.29359E-2,1.378906E-2,-4.833774E-3,-2.4552567E-2,1.5607864E-3,4.2687044E-2,1.2444495E-2,-1.0360087E-2,1.3259544E-2,-1.420868E-3,-2.6723742E-2,6.2203426E-2,4.0305395E-2,1.7791215E-2,3.4606174E-2,4.096886E-2,1.7001383E-2,1.9275693E-2,-4.3484503E-3,4.73495E-2,2.9883105E-2,5.0748765E-2,6.2732965E-2,3.85215E-2,9.592413E-3,-6.853377E-2,6.1251737E-2],"categories":[],"categories_nodes":[],"categories_segments":[],"categories_sizes":[],"default_left":[0,0,0,0,0,0,0,0,0,0,0,0,0,0,0,0,0,0,0,0,0,0,0,0,0,0,0,0,0,0,0,0,0,0,0,0,0,0,0,0,0,0,0,0,0,0,0,0,0,0,0,0,0,0,0,0,0,0,0,0,0,0,0],"id":13,"left_children":[1,3,5,7,9,11,13,15,17,19,21,23,25,27,29,31,33,35,37,39,41,43,45,47,49,51,53,55,57,59,61,-1,-1,-1,-1,-1,-1,-1,-1,-1,-1,-1,-1,-1,-1,-1,-1,-1,-1,-1,-1,-1,-1,-1,-1,-1,-1,-1,-1,-1,-1,-1,-1],"loss_changes":[1.0098882E5,4.3719316E4,1.3154023E4,7.4498433E3,1.4829543E4,7.058293E3,4.783172E3,1.013124E3,5.7795195E3,4.2852637E3,1.2743094E4,1.524331E3,5.0654014E3,2.929164E3,1.4916406E3,5.5970605E2,3.0897946E2,8.2496094E2,5.4389966E3,1.9087529E3,1.4474861E3,2.3484272E3,7.3830156E3,4.9540332E2,6.2244727E2,1.6237041E3,2.3805234E3,2.2270195E3,3.9940234E2,1.5593469E3,1.5870142E2,0E0,0E0,0E0,0E0,0E0,0E0,0E0,0E0,0E0,0E0,0E0,0E0,0E0,0E0,0E0,0E0,0E0,0E0,0E0,0E0,0E0,0E0,0E0,0E0,0E0,0E0,0E0,0E0,0E0,0E0,0E0,0E0],"parents":[2147483647,0,0,1,1,2,2,3,3,4,4,5,5,6,6,7,7,8,8,9,9,10,10,11,11,12,12,13,13,14,14,15,15,16,16,17,17,18,18,19,19,20,20,21,21,22,22,23,23,24,24,25,25,26,26,27,27,28,28,29,29,30,30],"right_children":[2,4,6,8,10,12,14,16,18,20,22,24,26,28,30,32,34,36,38,40,42,44,46,48,50,52,54,56,58,60,62,-1,-1,-1,-1,-1,-1,-1,-1,-1,-1,-1,-1,-1,-1,-1,-1,-1,-1,-1,-1,-1,-1,-1,-1,-1,-1,-1,-1,-1,-1,-1,-1],"split_conditions":[3E0,6E0,1.71E0,9E1,9.1E1,9.1E1,3.85E2,4.1E2,1.15E2,1E0,1.47E2,6E0,6E0,7.1E0,1.5E2,8.4E1,1.23E2,8.89999E1,4E0,7.5609756E-1,1.3225E2,1E0,8.6E1,1E0,4.075E0,8.4E1,1.95E2,9.3E1,3.8E2,9.1E1,3.175E0,6.0237583E-2,3.9123796E-2,7.053723E-3,4.522197E-2,4.304045E-2,2.29359E-2,1.378906E-2,-4.833774E-3,-2.4552567E-2,1.5607864E-3,4.2687044E-2,1.2444495E-2,-1.0360087E-2,1.3259544E-2,-1.420868E-3,-2.6723742E-2,6.2203426E-2,4.0305395E-2,1.7791215E-2,3.4606174E-2,4.096886E-2,1.7001383E-2,1.9275693E-2,-4.3484503E-3,4.73495E-2,2.9883105E-2,5.0748765E-2,6.2732965E-2,3.85215E-2,9.592413E-3,-6.853377E-2,6.1251737E-2],"split_indices":[23,15,12,2,2,2,17,17,17,25,17,15,15,12,11,2,3,3,15,20,11,25,3,25,10,3,17,2,17,2,10,0,0,0,0,0,0,0,0,0,0,0,0,0,0,0,0,0,0,0,0,0,0,0,0,0,0,0,0,0,0,0,0],"split_type":[0,0,0,0,0,0,0,0,0,0,0,0,0,0,0,0,0,0,0,0,0,0,0,0,0,0,0,0,0,0,0,0,0,0,0,0,0,0,0,0,0,0,0,0,0,0,0,0,0,0,0,0,0,0,0,0,0,0,0,0,0,0,0],"sum_hessian":[9.5578375E5,6.874455E5,2.683382E5,2.0325844E5,4.841871E5,1.3389862E5,1.3443958E5,1.5701065E4,1.8755738E5,6.2200527E4,4.2198656E5,3.3152527E4,1.0074609E5,1.0532058E5,2.9119002E4,1.2748139E4,2.952927E3,2.662905E4,1.6092833E5,2.8474986E4,3.3725543E4,4.3892457E4,3.780941E5,1.038654E4,2.2765986E4,3.39665E4,6.677959E4,7.606799E4,2.9252584E4,2.7027127E4,2.0918735E3,5.672028E3,7.0761104E3,2.2619314E3,6.909956E2,6.885693E3,1.9743357E4,6.76163E4,9.331203E4,1.237643E4,1.6098557E4,4.576708E3,2.9148834E4,1.7500258E4,2.63922E4,3.1444623E4,3.4664947E5,4.9875283E3,5.399012E3,9.339375E3,1.3426611E4,1.0027774E4,2.3938725E4,1.3318317E4,5.3461273E4,3.0433678E4,4.5634312E4,1.768088E4,1.1571705E4,5.981039E3,2.1046088E4,2.2259264E1,2.0696143E3],"tree_param":{"num_deleted":"0","num_feature":"32","num_nodes":"63","size_leaf_vector":"1"}},{"base_weights":[6.957662E-4,-1.93886E-1,5.0001216E-1,1.8142977E-1,-3.5232118E-1,3.6804107E-1,8.2577735E-1,8.0624175E-1,1.3023043E-1,-1.3312154E-1,-4.939146E-1,8.4897526E-2,5.02138E-1,1.1296842E0,7.5811166E-1,8.8826543E-1,1.2593724E-1,3.4424177E-1,-2.3429485E-2,7.506171E-2,-4.933885E-1,-2.3036249E-1,-6.018463E-1,-1.6318747E-1,2.3713523E-1,7.5208956E-1,3.5847282E-1,1.1639024E0,8.6935645E-1,6.6897625E-1,9.730534E-1,5.6595463E-2,3.5079803E-2,-5.390056E-3,3.7682597E-2,1.2366472E-2,4.110141E-2,2.4369406E-2,-5.843527E-3,1.4125785E-3,6.2658876E-2,5.0048428E-3,-2.9312784E-2,-1.4892711E-2,7.945435E-3,-3.8166597E-2,-2.33869E-2,2.5716007E-2,-1.7160844E-2,3.5132196E-2,7.6531195E-3,4.191954E-2,1.7301267E-2,3.833826E-2,1.4635615E-2,5.3551894E-2,6.1032046E-2,6.1332017E-2,3.8420793E-2,4.4315554E-2,2.7995989E-2,5.1753875E-2,3.639468E-2],"categories":[],"categories_nodes":[],"categories_segments":[],"categories_sizes":[],"default_left":[0,0,0,0,0,0,0,0,0,0,0,0,0,0,0,0,0,0,0,0,0,0,0,0,0,0,0,0,0,0,0,0,0,0,0,0,0,0,0,0,0,0,0,0,0,0,0,0,0,0,0,0,0,0,0,0,0,0,0,0,0,0,0],"id":14,"left_children":[1,3,5,7,9,11,13,15,17,19,21,23,25,27,29,31,33,35,37,39,41,43,45,47,49,51,53,55,57,59,61,-1,-1,-1,-1,-1,-1,-1,-1,-1,-1,-1,-1,-1,-1,-1,-1,-1,-1,-1,-1,-1,-1,-1,-1,-1,-1,-1,-1,-1,-1,-1,-1],"loss_changes":[9.255902E4,4.0763438E4,1.1484383E4,6.5093335E3,1.496093E4,7.2188066E3,1.582125E3,8.597373E2,6.1849497E3,1.4188722E4,8.33032E3,2.3079785E3,4.6325527E3,1.2288086E2,1.2057109E3,6.238965E2,2.4379543E2,3.6391797E3,5.2255884E3,6.611992E3,3.818664E3,2.235666E3,4.498883E3,2.8349165E3,1.4818848E3,1.6496211E3,2.1994512E3,6.265039E1,5.7146484E1,1.0546562E3,2.7923828E2,0E0,0E0,0E0,0E0,0E0,0E0,0E0,0E0,0E0,0E0,0E0,0E0,0E0,0E0,0E0,0E0,0E0,0E0,0E0,0E0,0E0,0E0,0E0,0E0,0E0,0E0,0E0,0E0,0E0,0E0,0E0,0E0],"parents":[2147483647,0,0,1,1,2,2,3,3,4,4,5,5,6,6,7,7,8,8,9,9,10,10,11,11,12,12,13,13,14,14,15,15,16,16,17,17,18,18,19,19,20,20,21,21,22,22,23,23,24,24,25,25,26,26,27,27,28,28,29,29,30,30],"right_children":[2,4,6,8,10,12,14,16,18,20,22,24,26,28,30,32,34,36,38,40,42,44,46,48,50,52,54,56,58,60,62,-1,-1,-1,-1,-1,-1,-1,-1,-1,-1,-1,-1,-1,-1,-1,-1,-1,-1,-1,-1,-1,-1,-1,-1,-1,-1,-1,-1,-1,-1,-1,-1],"split_conditions":[3E0,6E0,1.1E1,9E1,1E0,1E0,8.4E1,5.8E2,6E0,3.85E2,1.2941177E0,1E0,5.8E1,3.85E2,6E0,8.4E1,1.23E2,1.455E2,5.7E1,2E-1,9.1E1,2.4E0,4E0,6E0,9.1E1,3.85E2,8.5E1,5E0,9.4E1,1.155E2,3.85E2,5.6595463E-2,3.5079803E-2,-5.390056E-3,3.7682597E-2,1.2366472E-2,4.110141E-2,2.4369406E-2,-5.843527E-3,1.4125785E-3,6.2658876E-2,5.0048428E-3,-2.9312784E-2,-1.4892711E-2,7.945435E-3,-3.8166597E-2,-2.33869E-2,2.5716007E-2,-1.7160844E-2,3.5132196E-2,7.6531195E-3,4.191954E-2,1.7301267E-2,3.833826E-2,1.4635615E-2,5.3551894E-2,6.1032046E-2,6.1332017E-2,3.8420793E-2,4.4315554E-2,2.7995989E-2,5.1753875E-2,3.639468E-2],"split_indices":[23,15,22,2,24,7,2,17,16,17,18,25,5,17,23,2,3,11,5,30,2,7,22,15,2,17,17,23,9,9,17,0,0,0,0,0,0,0,0,0,0,0,0,0,0,0,0,0,0,0,0,0,0,0,0,0,0,0,0,0,0,0,0],"split_type":[0,0,0,0,0,0,0,0,0,0,0,0,0,0,0,0,0,0,0,0,0,0,0,0,0,0,0,0,0,0,0,0,0,0,0,0,0,0,0,0,0,0,0,0,0,0,0,0,0,0,0,0,0,0,0,0,0,0,0,0,0,0,0],"sum_hessian":[9.526624E5,6.8551925E5,2.6714312E5,2.0348503E5,4.8203422E5,1.9012545E5,7.7017664E4,1.5409198E4,1.8807584E5,1.8917608E5,2.9285816E5,6.1105484E4,1.2901997E5,1.4019676E4,6.2997992E4,1.375068E4,1.6585184E3,7.860102E4,1.0947482E5,1.1989522E5,6.928086E4,8.508944E4,2.0776872E5,2.3237596E4,3.7867887E4,4.7087582E4,8.193238E4,1.2384841E4,1.6348348E3,4.4536934E4,1.8461057E4,5.9606367E3,7.7900425E3,1.2097191E3,4.4879935E2,6.5348938E4,1.3252087E4,1.692761E4,9.254721E4,1.1531543E5,4.5797866E3,9.374051E3,5.990681E4,7.2516945E4,1.2572494E4,9.42585E4,1.1351021E5,4.877669E3,1.8359926E4,5.7906313E3,3.2077256E4,3.8832367E4,8.255216E3,1.13626875E4,7.0569695E4,4.712158E3,7.6726826E3,3.552185E2,1.2796163E3,1.48762705E4,2.9660664E4,1.4728408E4,3.7326484E3],"tree_param":{"num_deleted":"0","num_feature":"32","num_nodes":"63","size_leaf_vector":"1"}},{"base_weights":[-9.558064E-4,-2.0357056E-1,4.4891217E-1,2.812165E-1,-2.846286E-1,8.5086495E-1,3.4986478E-1,3.9819124E-1,7.0507966E-2,-4.0859756E-1,-1.3519887E-2,1.0220075E0,7.3057854E-1,2.5221577E-1,7.4603397E-1,2.506949E-1,6.666555E-1,-7.7852495E-2,5.442498E-1,-2.8612906E-1,-5.933628E-1,-1.363085E-1,3.180452E-1,1.111487E0,8.911834E-1,1.0846596E0,6.726005E-1,5.819901E-1,1.511314E-1,9.389752E-1,5.9850675E-1,2.8459659E-2,-1.7242891E-3,4.342075E-2,1.54419765E-2,-9.941732E-3,2.4026562E-2,3.150965E-2,-4.815185E-2,-2.0663326E-3,-2.2480236E-2,-3.9873112E-2,-2.559786E-2,2.2381753E-2,-8.949261E-3,2.2200318E-2,-7.984254E-3,6.128141E-2,5.258677E-2,5.36212E-2,4.016877E-2,2.6843196E-2,5.5255543E-2,2.4062216E-2,3.8370032E-2,3.4875464E-2,1.5353923E-2,1.9126555E-3,2.3648947E-2,5.676943E-2,4.230318E-2,4.6781555E-2,2.5302907E-2],"categories":[],"categories_nodes":[],"categories_segments":[],"categories_sizes":[],"default_left":[0,0,0,0,0,0,0,0,0,0,0,0,0,0,0,0,0,0,0,0,0,0,0,0,0,0,0,0,0,0,0,0,0,0,0,0,0,0,0,0,0,0,0,0,0,0,0,0,0,0,0,0,0,0,0,0,0,0,0,0,0,0,0],"id":15,"left_children":[1,3,5,7,9,11,13,15,17,19,21,23,25,27,29,31,33,35,37,39,41,43,45,47,49,51,53,55,57,59,61,-1,-1,-1,-1,-1,-1,-1,-1,-1,-1,-1,-1,-1,-1,-1,-1,-1,-1,-1,-1,-1,-1,-1,-1,-1,-1,-1,-1,-1,-1,-1,-1],"loss_changes":[8.6363914E4,2.5670957E4,1.1713164E4,2.3065288E3,1.8810598E4,1.1959297E3,9.131715E3,2.3824688E3,2.3482283E3,8.690309E3,7.150135E3,2.79E2,6.999219E2,6.3129277E3,1.3275234E3,3.5279492E3,1.5398096E3,1.7190035E3,1.0333611E3,9.243428E3,2.5428125E3,3.1940752E3,2.8562256E3,9.458008E1,1.5358984E2,5.2632324E1,5.319336E2,1.4105859E3,5.2661104E3,3.671211E2,8.236494E2,0E0,0E0,0E0,0E0,0E0,0E0,0E0,0E0,0E0,0E0,0E0,0E0,0E0,0E0,0E0,0E0,0E0,0E0,0E0,0E0,0E0,0E0,0E0,0E0,0E0,0E0,0E0,0E0,0E0,0E0,0E0,0E0],"parents":[2147483647,0,0,1,1,2,2,3,3,4,4,5,5,6,6,7,7,8,8,9,9,10,10,11,11,12,12,13,13,14,14,15,15,16,16,17,17,18,18,19,19,20,20,21,21,22,22,23,23,24,24,25,25,26,26,27,27,28,28,29,29,30,30],"right_children":[2,4,6,8,10,12,14,16,18,20,22,24,26,28,30,32,34,36,38,40,42,44,46,48,50,52,54,56,58,60,62,-1,-1,-1,-1,-1,-1,-1,-1,-1,-1,-1,-1,-1,-1,-1,-1,-1,-1,-1,-1,-1,-1,-1,-1,-1,-1,-1,-1,-1,-1,-1,-1],"split_conditions":[8E0,7E0,1.1E2,3.85E2,2E0,5.7E1,5E0,1.3755158E0,3.267974E0,3.85E2,1.8E0,5E1,8.6E1,9E1,9.2E1,1.6E2,4E0,8.3E1,3E0,1E0,5.5E1,9E1,3.9E2,4.6E1,9E1,4.5E1,9.6629214E-1,4E2,2E0,8.5E1,8.6E1,2.8459659E-2,-1.7242891E-3,4.342075E-2,1.54419765E-2,-9.941732E-3,2.4026562E-2,3.150965E-2,-4.815185E-2,-2.0663326E-3,-2.2480236E-2,-3.9873112E-2,-2.559786E-2,2.2381753E-2,-8.949261E-3,2.2200318E-2,-7.984254E-3,6.128141E-2,5.258677E-2,5.36212E-2,4.016877E-2,2.6843196E-2,5.5255543E-2,2.4062216E-2,3.8370032E-2,3.4875464E-2,1.5353923E-2,1.9126555E-3,2.3648947E-2,5.676943E-2,4.230318E-2,4.6781555E-2,2.5302907E-2],"split_indices":[22,16,17,17,23,5,23,18,18,17,7,17,2,2,2,17,16,5,13,24,21,2,17,5,2,21,20,17,7,2,9,0,0,0,0,0,0,0,0,0,0,0,0,0,0,0,0,0,0,0,0,0,0,0,0,0,0,0,0,0,0,0,0],"split_type":[0,0,0,0,0,0,0,0,0,0,0,0,0,0,0,0,0,0,0,0,0,0,0,0,0,0,0,0,0,0,0,0,0,0,0,0,0,0,0,0,0,0,0,0,0,0,0,0,0,0,0,0,0,0,0,0,0,0,0,0,0,0,0],"sum_hessian":[9.474893E5,6.5326725E5,2.9422206E5,9.3580664E4,5.5968656E5,5.8164504E4,2.3605756E5,6.0173566E4,3.3407098E4,3.840653E5,1.7562127E5,2.400104E4,3.4163465E4,1.893815E5,4.6676062E4,3.8838992E4,2.1334572E4,2.5441363E4,7.9657324E3,2.3097355E5,1.5309178E5,1.2816066E5,4.7460605E4,1.424376E4,9.75728E3,4.801923E3,2.9361541E4,4.442883E4,1.4495267E5,2.0220395E4,2.6455668E4,1.8346775E4,2.0492217E4,1.3640394E4,7.694179E3,2.0911799E4,4.5295645E3,7.5371406E3,4.2859207E2,9.2483445E4,1.384901E5,4.3645832E4,1.09445945E5,8.72724E3,1.19433414E5,3.755799E4,9.902618E3,4.8809165E3,9.362843E3,3.1771155E3,6.5801646E3,1.7478296E2,4.6271396E3,9.731148E3,1.9630393E4,3.1281236E4,1.314759E4,1.073168E5,3.763588E4,6.4862183E3,1.3734177E4,5.689614E3,2.0766055E4],"tree_param":{"num_deleted":"0","num_feature":"32","num_nodes":"63","size_leaf_vector":"1"}},{"base_weights":[2.2163705E-3,-3.25893E-1,2.571811E-1,1.7099583E-1,-3.8888672E-1,1.2823641E-1,6.362579E-1,3.271472E-1,-1.1068743E-1,-2.2428349E-2,-4.5165E-1,6.4917266E-1,5.8097463E-2,7.5047326E-1,3.024077E-1,1.4041646E-1,6.567464E-1,-1.9347605E-1,4.6765465E-1,1.8608512E-1,-2.2786872E-1,-1.4344229E-1,-5.1012367E-1,8.266244E-1,5.4042643E-1,3.147686E-1,-6.013721E-2,9.4738686E-1,6.1465186E-1,2.0540234E-1,8.208115E-1,1.2316884E-3,4.283842E-2,1.7979918E-2,4.1428264E-2,-3.235443E-2,-3.1864953E-3,1.90583E-4,3.7944842E-2,-1.2588083E-2,1.727296E-2,-2.5860274E-2,-5.8831566E-4,5.3665945E-3,-1.4289089E-2,-4.2344246E-2,-2.3373896E-2,4.658814E-2,3.2017436E-2,1.5062605E-2,3.0394284E-2,1.2047605E-2,3.2272045E-2,2.0828675E-2,-6.0489266E-3,6.040768E-2,4.4706192E-2,2.5696283E-2,4.2967297E-2,5.833153E-3,4.002304E-2,1.6900983E-2,4.9628805E-2],"categories":[],"categories_nodes":[],"categories_segments":[],"categories_sizes":[],"default_left":[0,0,0,0,0,0,0,0,0,0,0,0,0,0,0,0,0,0,0,0,0,0,0,0,0,0,0,0,0,0,0,0,0,0,0,0,0,0,0,0,0,0,0,0,0,0,0,0,0,0,0,0,0,0,0,0,0,0,0,0,0,0,0],"id":16,"left_children":[1,3,5,7,9,11,13,15,17,19,21,23,25,27,29,31,33,35,37,39,41,43,45,47,49,51,53,55,57,59,61,-1,-1,-1,-1,-1,-1,-1,-1,-1,-1,-1,-1,-1,-1,-1,-1,-1,-1,-1,-1,-1,-1,-1,-1,-1,-1,-1,-1,-1,-1,-1,-1],"loss_changes":[7.8973664E4,1.2921133E4,2.5966074E4,2.0430316E3,8.426207E3,1.44833125E4,5.1408594E3,1.838949E3,7.93382E2,2.294986E3,5.636875E3,9.06791E2,1.0602158E4,2.6857031E3,1.7282346E3,1.5822915E3,5.511279E2,8.5291376E2,2.803173E2,1.8555659E3,1.6873328E3,1.7805935E3,3.7748984E3,3.4876367E2,4.7028223E2,2.6890312E3,6.9372695E3,5.673633E2,1.4646211E3,1.5289393E3,4.4858643E2,0E0,0E0,0E0,0E0,0E0,0E0,0E0,0E0,0E0,0E0,0E0,0E0,0E0,0E0,0E0,0E0,0E0,0E0,0E0,0E0,0E0,0E0,0E0,0E0,0E0,0E0,0E0,0E0,0E0,0E0,0E0,0E0],"parents":[2147483647,0,0,1,1,2,2,3,3,4,4,5,5,6,6,7,7,8,8,9,9,10,10,11,11,12,12,13,13,14,14,15,15,16,16,17,17,18,18,19,19,20,20,21,21,22,22,23,23,24,24,25,25,26,26,27,27,28,28,29,29,30,30],"right_children":[2,4,6,8,10,12,14,16,18,20,22,24,26,28,30,32,34,36,38,40,42,44,46,48,50,52,54,56,58,60,62,-1,-1,-1,-1,-1,-1,-1,-1,-1,-1,-1,-1,-1,-1,-1,-1,-1,-1,-1,-1,-1,-1,-1,-1,-1,-1,-1,-1,-1,-1,-1,-1],"split_conditions":[6E0,2E0,4E0,6E0,1.9E2,1E2,3.85E2,7.8E1,2.9126213E0,1E0,3.65E1,8.8E1,3E0,5.7E1,3.275E1,1.465E2,1.3104013E0,5.5E1,1E0,2E0,1E0,1E0,4.2E1,5.5E1,3.925E0,1.4475E2,1.3225E2,5.9E1,1.2E1,1.4525E2,2E0,1.2316884E-3,4.283842E-2,1.7979918E-2,4.1428264E-2,-3.235443E-2,-3.1864953E-3,1.90583E-4,3.7944842E-2,-1.2588083E-2,1.727296E-2,-2.5860274E-2,-5.8831566E-4,5.3665945E-3,-1.4289089E-2,-4.2344246E-2,-2.3373896E-2,4.658814E-2,3.2017436E-2,1.5062605E-2,3.0394284E-2,1.2047605E-2,3.2272045E-2,2.0828675E-2,-6.0489266E-3,6.040768E-2,4.4706192E-2,2.5696283E-2,4.2967297E-2,5.833153E-3,4.002304E-2,1.6900983E-2,4.9628805E-2],"split_indices":[22,13,23,16,17,17,17,5,18,24,6,3,13,5,1,11,18,21,24,14,19,24,21,17,10,11,11,3,22,11,14,0,0,0,0,0,0,0,0,0,0,0,0,0,0,0,0,0,0,0,0,0,0,0,0,0,0,0,0,0,0,0,0],"split_type":[0,0,0,0,0,0,0,0,0,0,0,0,0,0,0,0,0,0,0,0,0,0,0,0,0,0,0,0,0,0,0,0,0,0,0,0,0,0,0,0,0,0,0,0,0,0,0,0,0,0,0,0,0,0,0,0,0,0,0,0,0,0,0],"sum_hessian":[9.44021E5,4.1279816E5,5.312229E5,4.6444492E4,3.6635366E5,3.9639125E5,1.3483161E5,2.9880107E4,1.6564385E4,5.3570766E4,3.127829E5,4.703515E4,3.493561E5,1.0046013E5,3.437148E4,1.907579E4,1.080432E4,1.4491311E4,2.0730742E3,2.6586629E4,2.6984139E4,4.9879746E4,2.6290316E5,1.786686E4,2.9168291E4,1.1017597E5,2.3918012E5,4.1002633E4,5.94575E4,2.8955945E4,5.415537E3,1.6423375E4,2.6524124E3,3.9607249E3,6.843595E3,3.2212722E3,1.1270039E4,8.0038226E2,1.272692E3,7.0945854E3,1.9492043E4,1.1535979E4,1.544816E4,1.806075E4,3.1818996E4,2.9546365E4,2.333568E5,1.1415613E4,6.451245E3,6.419411E3,2.274888E4,9.0072414E4,2.0103555E4,2.7069611E4,2.1211052E5,6.9471577E3,3.4055473E4,4.2123797E4,1.7333701E4,2.5200293E4,3.7556523E3,1.4226688E3,3.9928682E3],"tree_param":{"num_deleted":"0","num_feature":"32","num_nodes":"63","size_leaf_vector":"1"}},{"base_weights":[-3.3668446E-4,-2.3936266E-1,3.2516664E-1,1.452244E-1,-3.262679E-1,2.3919277E-1,8.1682396E-1,3.1178614E-1,-3.5631236E-2,1.8657683E-1,-3.7836015E-1,6.6940755E-1,1.56761E-1,6.66121E-1,1.0302854E0,1.9577008E-1,6.838899E-1,-3.9377546E-1,4.902343E-2,7.6027924E-1,1.04881614E-1,-4.0064156E-1,6.985414E-1,8.6697555E-1,5.353402E-1,4.5620018E-1,5.6837108E-2,9.836392E-1,5.420104E-1,9.245902E-1,1.1483772E0,1.6262724E-4,2.0766882E-2,2.9785676E-2,5.6334194E-2,-2.6383528E-2,1.1237694E-2,2.6457345E-2,-1.2303403E-4,5.5396557E-4,4.0852938E-2,2.0503601E-2,-1.4960504E-3,-2.2272062E-2,1.5745478E-3,-3.2480017E-3,4.5835923E-2,5.598099E-2,3.6313143E-2,1.438007E-2,3.3640847E-2,4.4424087E-2,1.8917121E-2,1.4058446E-2,-2.5294493E-3,4.474139E-2,5.7894755E-2,2.0724231E-2,4.419535E-2,3.8097646E-2,5.1406212E-2,6.0439408E-2,3.926864E-2],"categories":[],"categories_nodes":[],"categories_segments":[],"categories_sizes":[],"default_left":[0,0,0,0,0,0,0,0,0,0,0,0,0,0,0,0,0,0,0,0,0,0,0,0,0,0,0,0,0,0,0,0,0,0,0,0,0,0,0,0,0,0,0,0,0,0,0,0,0,0,0,0,0,0,0,0,0,0,0,0,0,0,0],"id":17,"left_children":[1,3,5,7,9,11,13,15,17,19,21,23,25,27,29,31,33,35,37,39,41,43,45,47,49,51,53,55,57,59,61,-1,-1,-1,-1,-1,-1,-1,-1,-1,-1,-1,-1,-1,-1,-1,-1,-1,-1,-1,-1,-1,-1,-1,-1,-1,-1,-1,-1,-1,-1,-1,-1],"loss_changes":[7.310164E4,1.8106666E4,1.6815285E4,3.0080388E3,1.1805391E4,1.2008064E4,1.9033672E3,2.2438076E3,1.4515543E3,1.9096364E3,9.626027E3,1.4412285E3,8.502516E3,1.3668682E3,3.0367188E2,1.6751791E3,4.8101904E2,7.582782E2,9.572196E2,2.1603345E2,1.4675411E3,7.608578E3,1.3547896E3,7.807461E2,1.1045078E3,2.3923154E3,5.1347637E3,1.4886133E2,1.0876187E3,2.1629883E2,2.5166895E2,0E0,0E0,0E0,0E0,0E0,0E0,0E0,0E0,0E0,0E0,0E0,0E0,0E0,0E0,0E0,0E0,0E0,0E0,0E0,0E0,0E0,0E0,0E0,0E0,0E0,0E0,0E0,0E0,0E0,0E0,0E0,0E0],"parents":[2147483647,0,0,1,1,2,2,3,3,4,4,5,5,6,6,7,7,8,8,9,9,10,10,11,11,12,12,13,13,14,14,15,15,16,16,17,17,18,18,19,19,20,20,21,21,22,22,23,23,24,24,25,25,26,26,27,27,28,28,29,29,30,30],"right_children":[2,4,6,8,10,12,14,16,18,20,22,24,26,28,30,32,34,36,38,40,42,44,46,48,50,52,54,56,58,60,62,-1,-1,-1,-1,-1,-1,-1,-1,-1,-1,-1,-1,-1,-1,-1,-1,-1,-1,-1,-1,-1,-1,-1,-1,-1,-1,-1,-1,-1,-1,-1,-1],"split_conditions":[7E0,3E0,4.9E0,4E0,8.6E1,8.9E1,9.3E0,1.44E2,5.3E1,3.7878788E-1,5.6E0,6E0,5.7E1,5.5E1,1.3921568E0,1.4534883E0,1.5425E2,2.7586207E0,3.148148E-1,8E-1,3.6555557E1,2.4E1,4E0,1E0,1E0,2.847571E-1,3E0,2E0,2E0,4E0,1.4705882E0,1.6262724E-4,2.0766882E-2,2.9785676E-2,5.6334194E-2,-2.6383528E-2,1.1237694E-2,2.6457345E-2,-1.2303403E-4,5.5396557E-4,4.0852938E-2,2.0503601E-2,-1.4960504E-3,-2.2272062E-2,1.5745478E-3,-3.2480017E-3,4.5835923E-2,5.598099E-2,3.6313143E-2,1.438007E-2,3.3640847E-2,4.4424087E-2,1.8917121E-2,1.4058446E-2,-2.5294493E-3,4.474139E-2,5.7894755E-2,2.0724231E-2,4.419535E-2,3.8097646E-2,5.1406212E-2,6.0439408E-2,3.926864E-2],"split_indices":[22,13,12,15,3,2,12,11,21,18,12,15,5,5,18,18,11,18,18,7,6,1,14,25,25,18,13,14,14,23,18,0,0,0,0,0,0,0,0,0,0,0,0,0,0,0,0,0,0,0,0,0,0,0,0,0,0,0,0,0,0,0,0],"split_type":[0,0,0,0,0,0,0,0,0,0,0,0,0,0,0,0,0,0,0,0,0,0,0,0,0,0,0,0,0,0,0,0,0,0,0,0,0,0,0,0,0,0,0,0,0,0,0,0,0,0,0,0,0,0,0,0,0,0,0,0,0,0,0],"sum_hessian":[9.395606E5,5.417439E5,3.9781675E5,9.985371E4,4.4189012E5,3.3860875E5,5.9207996E4,5.1980258E4,4.7873453E4,4.0745758E4,4.0114438E5,5.4444805E4,2.8416397E5,3.4710645E4,2.4497352E4,3.962794E4,1.2352314E4,9.151091E3,3.8722363E4,5.0768813E3,3.5668875E4,3.9301406E5,8.1303257E3,2.2005516E4,3.2439287E4,7.109836E4,2.130656E5,9.750812E3,2.4959832E4,1.2936506E4,1.1560845E4,2.111568E4,1.8512264E4,1.030492E4,2.0473945E3,7.5228813E3,1.628209E3,3.748312E3,3.497405E4,3.5782343E2,4.719058E3,1.0926781E4,2.4742096E4,3.5609703E5,3.6917023E4,1.8072693E3,6.3230566E3,7.866893E3,1.4138622E4,1.1579228E4,2.086006E4,1.0847893E4,6.025047E4,6.8991445E4,1.4407416E5,6.4670684E3,3.2837434E3,1.8182334E4,6.7774985E3,5.0384854E3,7.89802E3,9.907398E3,1.6534464E3],"tree_param":{"num_deleted":"0","num_feature":"32","num_nodes":"63","size_leaf_vector":"1"}},{"base_weights":[-1.0791836E-6,-1.7931792E-1,4.01006E-1,-4.4760442E-1,-6.457561E-2,2.8300557E-1,7.113858E-1,-4.6764827E-1,9.80394E-1,-1.2653343E-1,3.884009E-1,3.9907533E-1,3.6616558E-3,6.2249315E-1,9.6312207E-1,1.1156762E-1,-5.1552844E-1,1.224373E0,-1.3171439E0,1.8473391E-1,-1.9610994E-1,5.57107E-1,-9.2724554E-2,8.143555E-2,5.1433283E-1,-5.8137204E-2,6.798926E-1,8.379534E-1,5.3670084E-1,9.936367E-1,3.497313E-1,-6.215481E-2,8.7237E-3,-1.9148536E-2,-3.3423718E-2,-2.4361698E-2,6.439751E-2,-8.61966E-2,-2.5467908E-2,2.8375993E-2,5.4183765E-3,5.2537057E-3,-1.2582341E-2,2.025694E-2,4.688796E-2,-1.3085489E-2,2.0278797E-2,2.1804782E-2,-3.3280905E-3,3.4671765E-2,1.8660933E-2,2.5220184E-2,-5.7101124E-3,5.5627175E-2,7.138904E-3,3.2080323E-2,4.6148043E-2,1.8638765E-2,3.3368398E-2,4.470917E-2,5.576643E-2,9.350115E-3,6.200109E-2],"categories":[],"categories_nodes":[],"categories_segments":[],"categories_sizes":[],"default_left":[0,0,0,0,0,0,0,0,0,0,0,0,0,0,0,0,0,0,0,0,0,0,0,0,0,0,0,0,0,0,0,0,0,0,0,0,0,0,0,0,0,0,0,0,0,0,0,0,0,0,0,0,0,0,0,0,0,0,0,0,0,0,0],"id":18,"left_children":[1,3,5,7,9,11,13,15,17,19,21,23,25,27,29,31,33,35,37,39,41,43,45,47,49,51,53,55,57,59,61,-1,-1,-1,-1,-1,-1,-1,-1,-1,-1,-1,-1,-1,-1,-1,-1,-1,-1,-1,-1,-1,-1,-1,-1,-1,-1,-1,-1,-1,-1,-1,-1],"loss_changes":[6.729083E4,1.9906068E4,1.0589949E4,5.5454453E3,1.2711862E4,6.7930117E3,1.7811484E3,5.2979844E3,1.5066287E3,8.628977E3,4.423657E3,5.418627E3,2.5702463E3,1.0872812E3,3.8829102E2,1.2435223E3,3.576793E3,2.6520483E2,8.316312E1,2.1277197E3,5.4470977E3,2.3333633E3,1.1917418E3,2.0686199E3,2.744291E3,1.777443E3,1.1964512E3,2.785791E2,9.014746E2,2.375918E2,1.4266597E2,0E0,0E0,0E0,0E0,0E0,0E0,0E0,0E0,0E0,0E0,0E0,0E0,0E0,0E0,0E0,0E0,0E0,0E0,0E0,0E0,0E0,0E0,0E0,0E0,0E0,0E0,0E0,0E0,0E0,0E0,0E0,0E0],"parents":[2147483647,0,0,1,1,2,2,3,3,4,4,5,5,6,6,7,7,8,8,9,9,10,10,11,11,12,12,13,13,14,14,15,15,16,16,17,17,18,18,19,19,20,20,21,21,22,22,23,23,24,24,25,25,26,26,27,27,28,28,29,29,30,30],"right_children":[2,4,6,8,10,12,14,16,18,20,22,24,26,28,30,32,34,36,38,40,42,44,46,48,50,52,54,56,58,60,62,-1,-1,-1,-1,-1,-1,-1,-1,-1,-1,-1,-1,-1,-1,-1,-1,-1,-1,-1,-1,-1,-1,-1,-1,-1,-1,-1,-1,-1,-1,-1,-1],"split_conditions":[8E0,4E0,1.1E1,2E-1,3.4E0,3.85E2,5.5E0,3E0,1E0,1.9E2,3.85E2,1E0,1.475E2,1.6E2,5.1E2,7.9E1,3.6833332E1,1E0,1.925E1,8.5E1,2E0,3.8E2,1.4225E2,3E0,6E1,7.15E1,2E0,6.4E1,1.05E2,1.12E1,3.66E2,-6.215481E-2,8.7237E-3,-1.9148536E-2,-3.3423718E-2,-2.4361698E-2,6.439751E-2,-8.61966E-2,-2.5467908E-2,2.8375993E-2,5.4183765E-3,5.2537057E-3,-1.2582341E-2,2.025694E-2,4.688796E-2,-1.3085489E-2,2.0278797E-2,2.1804782E-2,-3.3280905E-3,3.4671765E-2,1.8660933E-2,2.5220184E-2,-5.7101124E-3,5.5627175E-2,7.138904E-3,3.2080323E-2,4.6148043E-2,1.8638765E-2,3.3368398E-2,4.470917E-2,5.576643E-2,9.350115E-3,6.200109E-2],"split_indices":[22,22,22,30,12,17,12,13,24,17,17,7,11,17,17,9,6,25,1,3,13,17,11,13,5,9,13,21,0,12,9,0,0,0,0,0,0,0,0,0,0,0,0,0,0,0,0,0,0,0,0,0,0,0,0,0,0,0,0,0,0,0,0],"split_type":[0,0,0,0,0,0,0,0,0,0,0,0,0,0,0,0,0,0,0,0,0,0,0,0,0,0,0,0,0,0,0,0,0,0,0,0,0,0,0,0,0,0,0,0,0,0,0,0,0,0,0,0,0,0,0,0,0,0,0,0,0,0,0],"sum_hessian":[9.3579544E5,6.466406E5,2.8915478E5,1.9370962E5,4.5293103E5,2.0950777E5,7.964701E4,1.9102962E5,2.68001E3,3.984348E5,5.44962E4,1.4800823E5,6.149953E4,5.8866957E4,2.0780047E4,1.4585328E4,1.764443E5,2.4235806E3,2.5642944E2,7.27896E4,3.2564522E5,4.034793E4,1.41482705E4,3.940762E4,1.0860061E5,5.635155E4,5.147983E3,1.6759451E4,4.2107508E4,1.97941E4,9.859461E2,6.455765E2,1.3939752E4,9.452597E4,8.191833E4,8.6321815E1,2.3372588E3,1.6903688E2,8.739256E1,1.2104252E4,6.0685348E4,5.069851E4,2.749467E5,2.8838736E4,1.1509194E4,1.0566033E4,3.582237E3,1.1601634E4,2.7805986E4,4.7855055E4,6.074556E4,5.105763E3,5.1245785E4,2.8500764E3,2.2979062E3,5.068805E3,1.16906455E4,1.8680275E4,2.3427232E4,1.090149E4,8.892609E3,8.356285E2,1.5031766E2],"tree_param":{"num_deleted":"0","num_feature":"32","num_nodes":"63","size_leaf_vector":"1"}},{"base_weights":[9.944744E-4,-1.5869805E-1,4.177633E-1,2.0603617E-1,-2.6724964E-1,2.21256E-1,6.1868894E-1,3.2640287E-1,5.9777953E-2,4.5398418E-2,-3.5340244E-1,2.9194674E-2,3.7149286E-1,5.2533203E-1,9.3567026E-1,1.9424151E-1,4.7565213E-1,-4.001933E-2,4.2467624E-1,-8.738455E-2,3.616666E-1,-1.1821037E-1,-4.3143627E-1,-3.964797E-1,1.1173098E-1,7.346501E-1,2.962263E-1,6.9032943E-1,3.520461E-1,8.1625676E-1,1.0622946E0,3.0775592E-2,5.1265573E-3,3.7863415E-2,1.31302625E-2,-5.8981865E-3,1.7913952E-2,1.5373625E-2,3.4790665E-2,2.7350111E-2,-6.9496282E-3,2.1992378E-2,-2.6015256E-2,-9.546807E-3,2.1282183E-2,-2.2268316E-2,3.7951484E-2,6.298846E-3,-2.9981786E-2,2.3140548E-2,1.5687572E-3,4.696796E-2,2.7784321E-2,-1.7882762E-2,1.6645866E-2,2.8314888E-2,4.185559E-2,3.814921E-2,1.5187989E-2,3.2211542E-2,4.9813543E-2,4.830066E-2,5.827508E-2],"categories":[],"categories_nodes":[],"categories_segments":[],"categories_sizes":[],"default_left":[0,0,0,0,0,0,0,0,0,0,0,0,0,0,0,0,0,0,0,0,0,0,0,0,0,0,0,0,0,0,0,0,0,0,0,0,0,0,0,0,0,0,0,0,0,0,0,0,0,0,0,0,0,0,0,0,0,0,0,0,0,0,0],"id":19,"left_children":[1,3,5,7,9,11,13,15,17,19,21,23,25,27,29,31,33,35,37,39,41,43,45,47,49,51,53,55,57,59,61,-1,-1,-1,-1,-1,-1,-1,-1,-1,-1,-1,-1,-1,-1,-1,-1,-1,-1,-1,-1,-1,-1,-1,-1,-1,-1,-1,-1,-1,-1,-1,-1],"loss_changes":[6.2056605E4,2.6689945E4,1.0198234E4,2.7218838E3,1.3993074E4,3.7680645E3,3.7783398E3,1.6727656E3,2.5419463E3,4.7131445E3,7.474574E3,2.0138838E3,2.0023555E3,2.8204004E3,4.3757227E2,1.7378748E3,2.3893281E3,1.7017778E3,4.7595435E2,2.5880483E3,2.288766E3,4.013398E3,5.072E3,9.882366E2,1.3544246E3,4.597456E2,1.4564409E3,9.1911523E2,9.544834E2,4.620205E2,1.3780371E2,0E0,0E0,0E0,0E0,0E0,0E0,0E0,0E0,0E0,0E0,0E0,0E0,0E0,0E0,0E0,0E0,0E0,0E0,0E0,0E0,0E0,0E0,0E0,0E0,0E0,0E0,0E0,0E0,0E0,0E0,0E0,0E0],"parents":[2147483647,0,0,1,1,2,2,3,3,4,4,5,5,6,6,7,7,8,8,9,9,10,10,11,11,12,12,13,13,14,14,15,15,16,16,17,17,18,18,19,19,20,20,21,21,22,22,23,23,24,24,25,25,26,26,27,27,28,28,29,29,30,30],"right_children":[2,4,6,8,10,12,14,16,18,20,22,24,26,28,30,32,34,36,38,40,42,44,46,48,50,52,54,56,58,60,62,-1,-1,-1,-1,-1,-1,-1,-1,-1,-1,-1,-1,-1,-1,-1,-1,-1,-1,-1,-1,-1,-1,-1,-1,-1,-1,-1,-1,-1,-1,-1,-1],"split_conditions":[3E0,3E0,1.71E0,3.69E1,6E1,4.075E0,7.1E0,1.4534883E0,7.9E1,2E0,3.661111E1,4.8E1,5.1E1,6.2E1,4.625E0,2.3255815E-1,1.4563106E0,1.4575E2,3.7666668E1,1.31E2,2.0833333E0,2.8E0,2E-1,1E1,1.06E2,1.3E1,3.6E1,1.2954545E0,5.5E1,1.135E1,1.342711E0,3.0775592E-2,5.1265573E-3,3.7863415E-2,1.31302625E-2,-5.8981865E-3,1.7913952E-2,1.5373625E-2,3.4790665E-2,2.7350111E-2,-6.9496282E-3,2.1992378E-2,-2.6015256E-2,-9.546807E-3,2.1282183E-2,-2.2268316E-2,3.7951484E-2,6.298846E-3,-2.9981786E-2,2.3140548E-2,1.5687572E-3,4.696796E-2,2.7784321E-2,-1.7882762E-2,1.6645866E-2,2.8314888E-2,4.185559E-2,3.814921E-2,1.5187989E-2,3.2211542E-2,4.9813543E-2,4.830066E-2,5.827508E-2],"split_indices":[23,13,12,6,5,10,12,18,21,7,6,21,5,5,10,18,18,11,6,11,18,12,30,16,9,16,21,20,9,12,18,0,0,0,0,0,0,0,0,0,0,0,0,0,0,0,0,0,0,0,0,0,0,0,0,0,0,0,0,0,0,0,0],"split_type":[0,0,0,0,0,0,0,0,0,0,0,0,0,0,0,0,0,0,0,0,0,0,0,0,0,0,0,0,0,0,0,0,0,0,0,0,0,0,0,0,0,0,0,0,0,0,0,0,0,0,0,0,0,0,0,0,0,0,0,0,0,0,0],"sum_hessian":[9.3240875E5,6.741118E5,2.5829692E5,1.5461211E5,5.1949972E5,1.3058636E5,1.2771056E5,8.4811766E4,6.980034E4,1.1222753E5,4.072722E5,5.7316234E4,7.3270125E4,9.865897E4,2.9051596E4,4.49833E4,3.982846E4,5.481153E4,1.49888125E4,7.9043234E4,3.31843E4,1.014648E5,3.058074E5,9.307247E3,4.800899E4,1.2575669E4,6.0694457E4,5.0535086E4,4.812388E4,1.4959181E4,1.4092416E4,8.040044E3,3.6943258E4,1.7151557E4,2.2676904E4,4.5841965E4,8.969566E3,1.0468073E4,4.5207393E3,5.94505E3,7.309818E4,3.048317E4,2.7011294E3,8.949814E4,1.1966658E4,3.0227166E5,3.535735E3,2.6060432E3,6.701204E3,8.940003E3,3.9068984E4,5.861942E3,6.713727E3,3.2238457E3,5.7470613E4,2.7395504E4,2.3139582E4,5.056994E3,4.3066887E4,7.653992E3,7.305188E3,7.301552E3,6.7908643E3],"tree_param":{"num_deleted":"0","num_feature":"32","num_nodes":"63","size_leaf_vector":"1"}},{"base_weights":[7.6207856E-4,-2.4179897E-1,2.523772E-1,1.2107479E-1,-3.4117517E-1,1.4956775E-1,6.471434E-1,-8.890545E-2,2.2551812E-1,-2.2163667E-1,-5.2479845E-1,4.9764276E-1,7.1205355E-2,7.4023944E-1,2.1385187E-1,-2.6135272E-1,1.5867504E-1,3.3629954E-1,-6.7899656E-3,1.9428518E-2,-3.8100523E-1,-5.319906E-1,1.4692714E0,7.7754116E-1,3.414897E-1,2.840016E-1,-3.362872E-2,6.162441E-1,9.6294254E-1,9.171327E-2,6.46196E-1,-1.1594545E-2,-8.9395724E-2,2.7903443E-2,1.3602783E-3,9.434891E-3,3.0536527E-2,-7.837211E-3,4.2435057E-2,-1.46606285E-2,6.9545405E-3,-7.86741E-3,-2.6945382E-2,-3.579745E-2,-2.3042003E-2,9.705471E-2,4.5783425E-5,5.2390445E-2,3.3282455E-2,3.594412E-2,1.228773E-2,1.03101125E-2,2.91438E-2,-3.7073344E-2,-1.7084599E-4,4.2991456E-2,2.4390688E-2,4.2353924E-2,5.6593485E-2,3.514455E-2,-1.4228605E-3,4.4643026E-2,3.3727032E-3],"categories":[],"categories_nodes":[],"categories_segments":[],"categories_sizes":[],"default_left":[0,0,0,0,0,0,0,0,0,0,0,0,0,0,0,0,0,0,0,0,0,0,0,0,0,0,0,0,0,0,0,0,0,0,0,0,0,0,0,0,0,0,0,0,0,0,0,0,0,0,0,0,0,0,0,0,0,0,0,0,0,0,0],"id":20,"left_children":[1,3,5,7,9,11,13,15,17,19,21,23,25,27,29,31,33,35,37,39,41,43,45,47,49,51,53,55,57,59,61,-1,-1,-1,-1,-1,-1,-1,-1,-1,-1,-1,-1,-1,-1,-1,-1,-1,-1,-1,-1,-1,-1,-1,-1,-1,-1,-1,-1,-1,-1,-1,-1],"loss_changes":[5.6702086E4,1.7058316E4,1.8507557E4,2.23036E3,8.1507695E3,9.868287E3,3.800375E3,1.4424133E3,1.747863E3,8.641185E3,2.1014766E3,2.9052676E3,6.5879917E3,2.1404883E3,8.7998285E2,8.947849E2,7.2831213E2,1.8625288E3,2.8137695E3,3.3491187E3,4.7818457E3,1.9089453E3,3.6492334E2,7.1853906E2,1.541625E3,2.2661333E3,4.2309844E3,1.5578613E3,5.40916E2,9.546696E2,5.239236E2,0E0,0E0,0E0,0E0,0E0,0E0,0E0,0E0,0E0,0E0,0E0,0E0,0E0,0E0,0E0,0E0,0E0,0E0,0E0,0E0,0E0,0E0,0E0,0E0,0E0,0E0,0E0,0E0,0E0,0E0,0E0,0E0],"parents":[2147483647,0,0,1,1,2,2,3,3,4,4,5,5,6,6,7,7,8,8,9,9,10,10,11,11,12,12,13,13,14,14,15,15,16,16,17,17,18,18,19,19,20,20,21,21,22,22,23,23,24,24,25,25,26,26,27,27,28,28,29,29,30,30],"right_children":[2,4,6,8,10,12,14,16,18,20,22,24,26,28,30,32,34,36,38,40,42,44,46,48,50,52,54,56,58,60,62,-1,-1,-1,-1,-1,-1,-1,-1,-1,-1,-1,-1,-1,-1,-1,-1,-1,-1,-1,-1,-1,-1,-1,-1,-1,-1,-1,-1,-1,-1,-1,-1],"split_conditions":[2E0,3E0,3.4E0,1.02E1,3.85E2,5.4E1,3.85E2,1.8E0,4.1E2,1E0,6.45E0,6E0,6E0,8E0,1.4325E2,6.3E0,3.725E0,1.4534883E0,1.475E2,2E0,1.4423077E0,5.5E1,1.9E2,4.4E1,4.642857E-1,1.4475E2,3.2E1,5.7E1,3.8E2,7.55E1,4E0,-1.1594545E-2,-8.9395724E-2,2.7903443E-2,1.3602783E-3,9.434891E-3,3.0536527E-2,-7.837211E-3,4.2435057E-2,-1.46606285E-2,6.9545405E-3,-7.86741E-3,-2.6945382E-2,-3.579745E-2,-2.3042003E-2,9.705471E-2,4.5783425E-5,5.2390445E-2,3.3282455E-2,3.594412E-2,1.228773E-2,1.03101125E-2,2.91438E-2,-3.7073344E-2,-1.7084599E-4,4.2991456E-2,2.4390688E-2,4.2353924E-2,5.6593485E-2,3.514455E-2,-1.4228605E-3,4.4643026E-2,3.3727032E-3],"split_indices":[23,13,12,8,17,5,17,12,17,24,10,15,15,12,11,7,10,18,11,14,18,21,9,5,18,11,21,5,17,9,15,0,0,0,0,0,0,0,0,0,0,0,0,0,0,0,0,0,0,0,0,0,0,0,0,0,0,0,0,0,0,0,0],"split_type":[0,0,0,0,0,0,0,0,0,0,0,0,0,0,0,0,0,0,0,0,0,0,0,0,0,0,0,0,0,0,0,0,0,0,0,0,0,0,0,0,0,0,0,0,0,0,0,0,0,0,0,0,0,0,0,0,0,0,0,0,0,0,0],"sum_hessian":[9.290505E5,4.7303612E5,4.5601438E5,1.0169496E5,3.713412E5,3.6179453E5,9.421985E4,3.378052E4,6.791444E4,2.249218E5,1.4641938E5,6.648161E4,2.9531294E5,7.755513E4,1.6664725E4,1.991147E4,1.386905E4,4.598469E4,2.1929746E4,8.951729E4,1.3540452E5,1.4589464E5,5.2473944E2,2.3804674E4,4.2676938E4,9.7467086E4,1.9784583E5,4.9822684E4,2.7732447E4,1.2995795E4,3.6689292E3,1.9536727E4,3.7474445E2,3.4330935E3,1.0435956E4,2.99042E4,1.6080493E4,1.8660486E4,3.2692588E3,2.477773E4,6.473956E4,5.6036703E4,7.9367805E4,4.0685324E4,1.0520931E5,3.9664328E2,1.2809619E2,6.9648438E3,1.683983E4,8.632836E3,3.4044098E4,7.7338625E4,2.0128467E4,8.096819E3,1.8974902E5,1.7196285E4,3.2626398E4,1.645695E4,1.1275499E4,2.133793E3,1.0862002E4,2.5717449E3,1.0971842E3],"tree_param":{"num_deleted":"0","num_feature":"32","num_nodes":"63","size_leaf_vector":"1"}},{"base_weights":[-1.6863991E-3,-1.4995632E-1,3.8732082E-1,1.3485946E-1,-2.7087486E-1,7.0058537E-1,2.8521022E-1,2.443736E-1,-9.26973E-2,1.1461643E-1,-3.2834744E-1,9.267648E-1,5.855493E-1,7.419471E-1,2.0641598E-1,6.6889477E-1,1.7474812E-1,-2.3003694E-1,1.5066409E-1,-1.2668909E-1,3.176379E-1,-3.488382E-2,-4.0592268E-1,9.780655E-1,6.74504E-1,3.683269E-1,6.7205244E-1,8.7294626E-1,6.342022E-1,4.1692868E-1,8.142115E-2,5.213017E-2,2.6545146E-2,-2.8726899E-3,1.4191041E-2,7.583186E-3,-1.5760051E-2,2.5984773E-3,2.4506534E-2,1.4096143E-2,-1.4631033E-2,8.1007674E-5,2.1940365E-2,2.8755864E-2,-4.889292E-3,-3.8923357E-2,-1.8225817E-2,5.2087296E-2,4.2043407E-2,-1.206666E-1,3.4532826E-2,4.6831764E-2,1.1199136E-2,3.10323E-2,4.7777575E-2,3.3556685E-2,4.7339257E-2,2.935556E-2,5.2143045E-2,1.344008E-2,2.941828E-2,3.3077036E-4,2.1643728E-2],"categories":[],"categories_nodes":[],"categories_segments":[],"categories_sizes":[],"default_left":[0,0,0,0,0,0,0,0,0,0,0,0,0,0,0,0,0,0,0,0,0,0,0,0,0,0,0,0,0,0,0,0,0,0,0,0,0,0,0,0,0,0,0,0,0,0,0,0,0,0,0,0,0,0,0,0,0,0,0,0,0,0,0],"id":21,"left_children":[1,3,5,7,9,11,13,15,17,19,21,23,25,27,29,31,33,35,37,39,41,43,45,47,49,51,53,55,57,59,61,-1,-1,-1,-1,-1,-1,-1,-1,-1,-1,-1,-1,-1,-1,-1,-1,-1,-1,-1,-1,-1,-1,-1,-1,-1,-1,-1,-1,-1,-1,-1,-1],"loss_changes":[5.3296883E4,2.3041398E4,8.1565547E3,4.968994E3,1.040523E4,1.6299141E3,6.9209473E3,3.978477E3,2.1653335E3,2.9853628E3,9.30457E3,2.721289E2,7.803867E2,3.982744E2,4.315949E3,9.7693555E2,2.928971E3,1.3463232E3,7.829958E2,1.8880598E3,1.2672207E3,3.2790276E3,4.9859766E3,1.5161914E2,1.817583E2,9.7086E2,4.319297E2,1.8894238E2,2.9769922E2,1.5514932E3,2.7058342E3,0E0,0E0,0E0,0E0,0E0,0E0,0E0,0E0,0E0,0E0,0E0,0E0,0E0,0E0,0E0,0E0,0E0,0E0,0E0,0E0,0E0,0E0,0E0,0E0,0E0,0E0,0E0,0E0,0E0,0E0,0E0,0E0],"parents":[2147483647,0,0,1,1,2,2,3,3,4,4,5,5,6,6,7,7,8,8,9,9,10,10,11,11,12,12,13,13,14,14,15,15,16,16,17,17,18,18,19,19,20,20,21,21,22,22,23,23,24,24,25,25,26,26,27,27,28,28,29,29,30,30],"right_children":[2,4,6,8,10,12,14,16,18,20,22,24,26,28,30,32,34,36,38,40,42,44,46,48,50,52,54,56,58,60,62,-1,-1,-1,-1,-1,-1,-1,-1,-1,-1,-1,-1,-1,-1,-1,-1,-1,-1,-1,-1,-1,-1,-1,-1,-1,-1,-1,-1,-1,-1,-1,-1],"split_conditions":[3E0,6E0,9.1E1,3.85E2,9.1E1,8.5E1,9E1,9.2E1,2.4916945E0,1E0,6E1,3.85E2,1E0,5.8E1,6E1,8.4E1,1E0,1E0,1.24E2,1.2941177E0,1.775E1,3E-1,4.2E1,8.1E1,2.5E1,6E0,6E0,1.081081E0,5.625E0,1.2364864E0,3.05E1,5.213017E-2,2.6545146E-2,-2.8726899E-3,1.4191041E-2,7.583186E-3,-1.5760051E-2,2.5984773E-3,2.4506534E-2,1.4096143E-2,-1.4631033E-2,8.1007674E-5,2.1940365E-2,2.8755864E-2,-4.889292E-3,-3.8923357E-2,-1.8225817E-2,5.2087296E-2,4.2043407E-2,-1.206666E-1,3.4532826E-2,4.6831764E-2,1.1199136E-2,3.10323E-2,4.7777575E-2,3.3556685E-2,4.7339257E-2,2.935556E-2,5.2143045E-2,1.344008E-2,2.941828E-2,3.3077036E-4,2.1643728E-2],"split_indices":[23,15,2,17,2,2,17,2,18,25,5,17,25,5,5,2,7,25,3,18,1,18,21,2,21,15,23,20,10,20,1,0,0,0,0,0,0,0,0,0,0,0,0,0,0,0,0,0,0,0,0,0,0,0,0,0,0,0,0,0,0,0,0],"split_type":[0,0,0,0,0,0,0,0,0,0,0,0,0,0,0,0,0,0,0,0,0,0,0,0,0,0,0,0,0,0,0,0,0,0,0,0,0,0,0,0,0,0,0,0,0,0,0,0,0,0,0,0,0,0,0,0,0,0,0,0,0,0,0],"sum_hessian":[9.2403675E5,6.690355E5,2.5500131E5,1.9938855E5,4.6964694E5,6.268343E4,1.9231788E5,1.3460722E5,6.478133E4,6.093432E4,4.087126E5,2.1128096E4,4.1555336E4,2.8293809E4,1.6402406E5,1.8963793E4,1.1564342E5,4.141124E4,2.3370092E4,2.7842395E4,3.3091926E4,8.545251E4,3.232601E5,1.7552746E4,3.5753489E3,1.1838247E4,2.9717088E4,1.2762558E4,1.5531251E4,6.1106164E4,1.0291791E5,5.1104893E3,1.3853304E4,3.696039E4,7.868304E4,7.5538296E3,3.385741E4,1.810783E4,5.2622603E3,8.040645E3,1.980175E4,9.172216E3,2.3919709E4,7.986455E3,7.7466055E4,3.2331256E4,2.9092884E5,1.1979333E4,5.5734146E3,1.7060764E1,3.558288E3,2.3955537E3,9.442693E3,2.5161053E4,4.556036E3,3.4241184E3,9.338438E3,1.3930832E4,1.6004192E3,3.2784465E4,2.8321697E4,8.485816E4,1.8059752E4],"tree_param":{"num_deleted":"0","num_feature":"32","num_nodes":"63","size_leaf_vector":"1"}},{"base_weights":[2.3741685E-3,-2.2395374E-1,2.369096E-1,1.0599549E-1,-3.1459475E-1,1.6245104E-1,7.3575854E-1,4.4776148E-1,4.429967E-2,-2.0363358E-1,-4.8550454E-1,3.779838E-2,3.7657523E-1,8.0393046E-1,3.1144187E-1,4.7483736E-1,-7.915738E-1,-3.0454375E-2,3.496993E-1,-3.4301683E-1,1.771777E-2,-5.785131E-1,-3.3679116E-1,-1.6556348E-1,1.6564363E-1,6.3499904E-1,2.934058E-1,6.9793177E-1,1.0089272E0,8.519101E-1,1.8697436E-1,3.73305E-2,1.9580726E-2,-2.5038892E-2,-1.1161359E-1,-5.0648027E-3,2.0796953E-2,9.139189E-3,3.67031E-2,-1.812095E-2,5.10946E-2,-1.1291954E-2,1.15646105E-2,-2.5744034E-2,-3.9005022E-2,-2.0356936E-2,-2.3812025E-3,-2.1802912E-2,-4.4481168E-3,2.3850068E-2,4.525227E-3,3.93842E-2,2.5757266E-2,1.1171587E-2,2.9950866E-2,4.4113215E-2,2.3967225E-2,4.4052646E-2,5.633231E-2,-7.125064E-4,5.3179473E-2,3.385816E-4,3.367738E-2],"categories":[],"categories_nodes":[],"categories_segments":[],"categories_sizes":[],"default_left":[0,0,0,0,0,0,0,0,0,0,0,0,0,0,0,0,0,0,0,0,0,0,0,0,0,0,0,0,0,0,0,0,0,0,0,0,0,0,0,0,0,0,0,0,0,0,0,0,0,0,0,0,0,0,0,0,0,0,0,0,0,0,0],"id":22,"left_children":[1,3,5,7,9,11,13,15,17,19,21,23,25,27,29,31,33,35,37,39,41,43,45,47,49,51,53,55,57,59,61,-1,-1,-1,-1,-1,-1,-1,-1,-1,-1,-1,-1,-1,-1,-1,-1,-1,-1,-1,-1,-1,-1,-1,-1,-1,-1,-1,-1,-1,-1,-1,-1],"loss_changes":[4.89564E4,1.4036959E4,1.6823111E4,2.132788E3,6.982543E3,1.0519114E4,1.7010566E3,5.197781E2,1.9562156E3,6.8881797E3,2.0044336E3,6.476297E3,3.116338E3,1.099834E3,5.476569E2,3.4180176E2,1.3662225E2,2.1769739E3,1.0807334E3,3.6286816E3,4.4874854E3,1.1430391E3,1.1345703E3,1.9922124E3,3.5781362E3,6.4526074E2,2.3458252E3,1.3454443E3,2.5796875E2,2.794956E2,5.807595E2,0E0,0E0,0E0,0E0,0E0,0E0,0E0,0E0,0E0,0E0,0E0,0E0,0E0,0E0,0E0,0E0,0E0,0E0,0E0,0E0,0E0,0E0,0E0,0E0,0E0,0E0,0E0,0E0,0E0,0E0,0E0,0E0],"parents":[2147483647,0,0,1,1,2,2,3,3,4,4,5,5,6,6,7,7,8,8,9,9,10,10,11,11,12,12,13,13,14,14,15,15,16,16,17,17,18,18,19,19,20,20,21,21,22,22,23,23,24,24,25,25,26,26,27,27,28,28,29,29,30,30],"right_children":[2,4,6,8,10,12,14,16,18,20,22,24,26,28,30,32,34,36,38,40,42,44,46,48,50,52,54,56,58,60,62,-1,-1,-1,-1,-1,-1,-1,-1,-1,-1,-1,-1,-1,-1,-1,-1,-1,-1,-1,-1,-1,-1,-1,-1,-1,-1,-1,-1,-1,-1,-1,-1],"split_conditions":[2E0,3E0,4.9E0,1.35E2,3.85E2,9E0,3.85E2,7.2E0,8.1E1,1.3E0,1.875E1,1E0,1.6E2,3.8E2,7.15E1,3E1,6.5E1,1.4575E2,1.46E1,2E-1,7.4766356E-1,1.42E0,7.9E1,5E1,5.4E1,5.8E1,1.2E1,7.8E1,9.5E0,6.3E0,1.4325E2,3.73305E-2,1.9580726E-2,-2.5038892E-2,-1.1161359E-1,-5.0648027E-3,2.0796953E-2,9.139189E-3,3.67031E-2,-1.812095E-2,5.10946E-2,-1.1291954E-2,1.15646105E-2,-2.5744034E-2,-3.9005022E-2,-2.0356936E-2,-2.3812025E-3,-2.1802912E-2,-4.4481168E-3,2.3850068E-2,4.525227E-3,3.93842E-2,2.5757266E-2,1.1171587E-2,2.9950866E-2,4.4113215E-2,2.3967225E-2,4.4052646E-2,5.633231E-2,-7.125064E-4,5.3179473E-2,3.385816E-4,3.367738E-2],"split_indices":[23,13,12,17,17,22,17,7,5,7,1,7,17,17,9,17,17,11,8,30,20,12,21,21,5,5,22,17,12,8,11,0,0,0,0,0,0,0,0,0,0,0,0,0,0,0,0,0,0,0,0,0,0,0,0,0,0,0,0,0,0,0,0],"split_type":[0,0,0,0,0,0,0,0,0,0,0,0,0,0,0,0,0,0,0,0,0,0,0,0,0,0,0,0,0,0,0,0,0,0,0,0,0,0,0,0,0,0,0,0,0,0,0,0,0,0,0,0,0,0,0,0,0,0,0,0,0,0,0],"sum_hessian":[9.222762E5,4.6935056E5,4.5292566E5,1.01149234E5,3.6820134E5,3.9410403E5,5.88216E4,1.5465436E4,8.56838E4,2.2325805E5,1.4494328E5,2.4909527E5,1.4500877E5,5.067778E4,8.1438237E3,1.5135992E4,3.2944357E2,6.883624E4,1.6847557E4,1.3699331E5,8.6264734E4,8.916919E4,5.57741E4,9.615002E4,1.5294525E5,3.5302785E4,1.09705984E5,3.3410734E4,1.7267045E4,1.5222322E3,6.6215913E3,3.5446475E3,1.1591345E4,2.7635767E2,5.30859E1,5.940961E4,9.426631E3,1.1748526E4,5.099031E3,1.3507469E5,1.9186185E3,4.030334E4,4.5961395E4,6.778081E4,2.1388373E4,4.4859918E4,1.0914182E4,2.1217434E4,7.493259E4,2.9732105E4,1.2321314E5,1.5520125E4,1.978266E4,8.926985E4,2.0436129E4,1.81223E4,1.5288434E4,8.284658E3,8.982388E3,2.9932098E2,1.2229113E3,4.8335215E3,1.78807E3],"tree_param":{"num_deleted":"0","num_feature":"32","num_nodes":"63","size_leaf_vector":"1"}},{"base_weights":[1.315782E-3,-2.4988271E-1,1.9663233E-1,-2.7920532E-1,4.4262496E-1,9.663075E-2,5.0496984E-1,2.9064922E-2,-3.3102882E-1,8.691775E-1,3.034019E-1,-1.19115524E-1,2.1484724E-1,3.6955068E-1,7.341734E-1,-1.7804158E-1,1.5115961E-1,-5.3180054E-2,-3.8817933E-1,2.750118E-1,1.0248288E0,2.4845076E-1,1.4535438E0,2.0343748E-1,-2.041375E-1,1.3944978E-1,4.8806572E-1,7.008782E-1,2.7907586E-1,6.397885E-1,9.8065054E-1,-1.3321011E-2,2.7300972E-2,5.2075204E-3,4.1784868E-2,-6.0072844E-3,2.080902E-2,-2.0031711E-2,3.6007293E-2,5.0607342E-2,-1.1764475E-2,5.7584465E-2,7.570877E-3,1.3106031E-3,2.458773E-2,-7.090386E-2,7.557519E-2,3.4629144E-2,3.0904375E-3,-7.787078E-4,-1.7133236E-2,2.3295864E-2,3.6429116E-3,2.0501113E-2,4.5917675E-2,4.8738595E-2,3.0518143E-2,2.3912715E-2,7.12562E-3,4.0131185E-2,2.5499294E-2,4.419137E-2,5.3690474E-2],"categories":[],"categories_nodes":[],"categories_segments":[],"categories_sizes":[],"default_left":[0,0,0,0,0,0,0,0,0,0,0,0,0,0,0,0,0,0,0,0,0,0,0,0,0,0,0,0,0,0,0,0,0,0,0,0,0,0,0,0,0,0,0,0,0,0,0,0,0,0,0,0,0,0,0,0,0,0,0,0,0,0,0],"id":23,"left_children":[1,3,5,7,9,11,13,15,17,19,21,23,25,27,29,31,33,35,37,39,41,43,45,47,49,51,53,55,57,59,61,-1,-1,-1,-1,-1,-1,-1,-1,-1,-1,-1,-1,-1,-1,-1,-1,-1,-1,-1,-1,-1,-1,-1,-1,-1,-1,-1,-1,-1,-1,-1,-1],"loss_changes":[4.5055785E4,8.1571367E3,1.5929639E4,6.156701E3,9.68574E2,9.949636E3,3.926463E3,1.402559E3,5.2387734E3,3.7071167E2,7.7704626E2,3.7871235E3,5.191411E3,2.3838193E3,1.0918359E3,1.316701E3,1.1227231E3,1.7692197E3,3.777832E3,3.1498282E2,3.520498E2,6.3517474E2,9.761536E1,1.9956168E3,2.85467E3,4.293894E3,1.8295742E3,4.2171973E2,1.699312E3,7.1743945E2,1.1542383E2,0E0,0E0,0E0,0E0,0E0,0E0,0E0,0E0,0E0,0E0,0E0,0E0,0E0,0E0,0E0,0E0,0E0,0E0,0E0,0E0,0E0,0E0,0E0,0E0,0E0,0E0,0E0,0E0,0E0,0E0,0E0,0E0],"parents":[2147483647,0,0,1,1,2,2,3,3,4,4,5,5,6,6,7,7,8,8,9,9,10,10,11,11,12,12,13,13,14,14,15,15,16,16,17,17,18,18,19,19,20,20,21,21,22,22,23,23,24,24,25,25,26,26,27,27,28,28,29,29,30,30],"right_children":[2,4,6,8,10,12,14,16,18,20,22,24,26,28,30,32,34,36,38,40,42,44,46,48,50,52,54,56,58,60,62,-1,-1,-1,-1,-1,-1,-1,-1,-1,-1,-1,-1,-1,-1,-1,-1,-1,-1,-1,-1,-1,-1,-1,-1,-1,-1,-1,-1,-1,-1,-1,-1],"split_conditions":[6E0,4.6E0,4E0,3E0,1.3475E2,1E0,2.9E0,1.05E1,3.65E1,5.6E1,6E0,9.1E1,3.3E0,9E1,9.4E0,3.370098E0,1.505E2,1.75E1,2E-1,1.295E2,7.8E1,1.4534883E0,9E-1,9E0,6E0,9E1,5.4E0,8.1E1,6E1,9.3E1,4.675E0,-1.3321011E-2,2.7300972E-2,5.2075204E-3,4.1784868E-2,-6.0072844E-3,2.080902E-2,-2.0031711E-2,3.6007293E-2,5.0607342E-2,-1.1764475E-2,5.7584465E-2,7.570877E-3,1.3106031E-3,2.458773E-2,-7.090386E-2,7.557519E-2,3.4629144E-2,3.0904375E-3,-7.787078E-4,-1.7133236E-2,2.3295864E-2,3.6429116E-3,2.0501113E-2,4.5917675E-2,4.8738595E-2,3.0518143E-2,2.3912715E-2,7.12562E-3,4.0131185E-2,2.5499294E-2,4.419137E-2,5.3690474E-2],"split_indices":[22,12,23,13,11,7,12,8,6,21,10,2,12,2,12,18,11,8,30,11,21,18,7,16,15,2,10,2,5,2,10,0,0,0,0,0,0,0,0,0,0,0,0,0,0,0,0,0,0,0,0,0,0,0,0,0,0,0,0,0,0,0,0],"split_type":[0,0,0,0,0,0,0,0,0,0,0,0,0,0,0,0,0,0,0,0,0,0,0,0,0,0,0,0,0,0,0,0,0,0,0,0,0,0,0,0,0,0,0,0,0,0,0,0,0,0,0,0,0,0,0,0,0,0,0,0,0,0,0],"sum_hessian":[9.18317E5,4.0169397E5,5.1662303E5,3.8537725E5,1.6316694E4,3.9010488E5,1.2651816E5,5.546235E4,3.299149E5,4.0125452E3,1.2304149E4,1.3808972E5,2.5201516E5,7.95332E4,4.6984953E4,2.056963E4,3.489272E4,5.628379E4,2.7363112E5,8.3409564E2,3.1784497E3,1.1745412E4,5.587368E2,2.8805559E4,1.0928416E5,1.9751256E5,5.45026E4,1.7056637E4,6.247657E4,3.397999E4,1.3004967E4,1.8333156E4,2.2364749E3,3.265267E4,2.24005E3,4.92575E4,7.026287E3,2.705916E5,3.0395178E3,3.4040726E2,4.9368835E2,2.7747827E3,4.0366687E2,6.1395957E3,5.6058164E3,1.01257105E1,5.486111E2,6.466011E3,2.2339547E4,4.6284234E4,6.299992E4,3.3460285E4,1.6405228E5,4.613819E4,8.36441E3,4.231836E3,1.2824802E4,2.5410395E4,3.7066176E4,1.5067587E4,1.89124E4,6.387358E3,6.6176084E3],"tree_param":{"num_deleted":"0","num_feature":"32","num_nodes":"63","size_leaf_vector":"1"}},{"base_weights":[3.738483E-3,-2.3590453E-1,1.901272E-1,-2.6367107E-1,4.1831094E-1,1.2813567E-1,6.4151907E-1,-4.636246E-1,-1.9496493E-1,1.5013057E-1,6.45466E-1,5.292475E-1,6.7441195E-2,5.0223655E-1,8.729389E-1,-4.846941E-1,1.0078304E0,-2.5594643E-1,5.112497E-2,-1.6663922E-1,5.537847E-1,8.327287E-1,-1.960194E-1,7.867207E-1,4.416552E-1,3.2059097E-1,-1.4598295E-2,3.723994E-1,8.196593E-1,9.80836E-1,7.212482E-1,-4.6236437E-2,-2.1541093E-2,6.3370645E-2,-6.5209344E-2,-2.3624351E-2,-1.0046662E-2,-3.655261E-3,1.9445622E-2,-1.462913E-2,3.706364E-2,-1.2818922E-2,3.727904E-2,2.4416365E-2,5.2008618E-2,-3.1649064E-2,3.5398122E-2,4.786073E-2,2.9595384E-2,3.821499E-2,1.8467218E-2,2.0824272E-2,2.6495908E-3,-3.3725244E-3,1.791314E-2,3.541991E-2,1.1373097E-2,4.4323493E-2,2.4015076E-2,4.3989275E-2,5.472977E-2,4.5499697E-2,2.736961E-2],"categories":[],"categories_nodes":[],"categories_segments":[],"categories_sizes":[],"default_left":[0,0,0,0,0,0,0,0,0,0,0,0,0,0,0,0,0,0,0,0,0,0,0,0,0,0,0,0,0,0,0,0,0,0,0,0,0,0,0,0,0,0,0,0,0,0,0,0,0,0,0,0,0,0,0,0,0,0,0,0,0,0,0],"id":24,"left_children":[1,3,5,7,9,